digraph Tree {
node [shape=box, style="filled, rounded", color="black", fontname="helvetica"] ;
edge [fontname="helvetica"] ;
0 [label=<EXT_SOURCE_2 &le; 0.556<br/>gini = 0.5<br/>samples = 62494<br/>value = [78969, 78796]>, fillcolor="#ffffff"] ;
1 [label=<EXT_SOURCE_2^2 &le; 0.032<br/>gini = 0.468<br/>samples = 23242<br/>value = [25841, 43508]>, fillcolor="#afd7f4"] ;
0 -> 1 [labeldistance=2.5, labelangle=45, headlabel="True"] ;
2 [label=<DAYS_REGISTRATION &le; 0.6<br/>gini = 0.364<br/>samples = 4420<br/>value = [3861, 12304]>, fillcolor="#77bced"] ;
1 -> 2 ;
3 [label=<FLAG_DOCUMENT_3 &le; 0.5<br/>gini = 0.478<br/>samples = 332<br/>value = [382, 584]>, fillcolor="#bbddf6"] ;
2 -> 3 ;
4 [label=<AMT_INCOME_TOTAL AMT_GOODS_PRICE &le; 0.0<br/>gini = 0.49<br/>samples = 116<br/>value = [148, 112]>, fillcolor="#f9e0cf"] ;
3 -> 4 ;
5 [label=<REGION_POPULATION_RELATIVE &le; 0.107<br/>gini = 0.109<br/>samples = 38<br/>value = [65, 4]>, fillcolor="#e78945"] ;
4 -> 5 ;
6 [label=<EXT_SOURCE_2 &le; 0.141<br/>gini = 0.408<br/>samples = 7<br/>value = [10, 4]>, fillcolor="#efb388"] ;
5 -> 6 ;
7 [label=<gini = 0.0<br/>samples = 6<br/>value = [10, 0]>, fillcolor="#e58139"] ;
6 -> 7 ;
8 [label=<gini = 0.0<br/>samples = 1<br/>value = [0, 4]>, fillcolor="#399de5"] ;
6 -> 8 ;
9 [label=<gini = 0.0<br/>samples = 31<br/>value = [55, 0]>, fillcolor="#e58139"] ;
5 -> 9 ;
10 [label=<DAYS_LAST_PHONE_CHANGE &le; 0.621<br/>gini = 0.491<br/>samples = 78<br/>value = [83.0, 108.0]>, fillcolor="#d1e8f9"] ;
4 -> 10 ;
11 [label=<gini = 0.0<br/>samples = 8<br/>value = [11, 0]>, fillcolor="#e58139"] ;
10 -> 11 ;
12 [label=<AMT_CREDIT AMT_ANNUITY &le; 0.018<br/>gini = 0.48<br/>samples = 70<br/>value = [72, 108]>, fillcolor="#bddef6"] ;
10 -> 12 ;
13 [label=<AMT_CREDIT AMT_GOODS_PRICE &le; 0.025<br/>gini = 0.441<br/>samples = 52<br/>value = [49.0, 100.0]>, fillcolor="#9acdf2"] ;
12 -> 13 ;
14 [label=<AMT_INCOME_TOTAL^2 &le; 0.0<br/>gini = 0.475<br/>samples = 47<br/>value = [48, 76]>, fillcolor="#b6dbf5"] ;
13 -> 14 ;
15 [label=<DAYS_ID_PUBLISH &le; 0.44<br/>gini = 0.496<br/>samples = 43<br/>value = [48, 40]>, fillcolor="#fbeade"] ;
14 -> 15 ;
16 [label=<gini = 0.495<br/>samples = 30<br/>value = [33, 40]>, fillcolor="#dceefa"] ;
15 -> 16 ;
17 [label=<gini = 0.0<br/>samples = 13<br/>value = [15, 0]>, fillcolor="#e58139"] ;
15 -> 17 ;
18 [label=<gini = 0.0<br/>samples = 4<br/>value = [0, 36]>, fillcolor="#399de5"] ;
14 -> 18 ;
19 [label=<AMT_CREDIT AMT_ANNUITY &le; 0.013<br/>gini = 0.077<br/>samples = 5<br/>value = [1, 24]>, fillcolor="#41a1e6"] ;
13 -> 19 ;
20 [label=<gini = 0.0<br/>samples = 1<br/>value = [1, 0]>, fillcolor="#e58139"] ;
19 -> 20 ;
21 [label=<gini = 0.0<br/>samples = 4<br/>value = [0, 24]>, fillcolor="#399de5"] ;
19 -> 21 ;
22 [label=<CNT_FAM_MEMBERS &le; 1.5<br/>gini = 0.383<br/>samples = 18<br/>value = [23, 8]>, fillcolor="#eead7e"] ;
12 -> 22 ;
23 [label=<AMT_CREDIT &le; 912622.5<br/>gini = 0.444<br/>samples = 5<br/>value = [4, 8]>, fillcolor="#9ccef2"] ;
22 -> 23 ;
24 [label=<gini = 0.0<br/>samples = 3<br/>value = [4, 0]>, fillcolor="#e58139"] ;
23 -> 24 ;
25 [label=<gini = 0.0<br/>samples = 2<br/>value = [0, 8]>, fillcolor="#399de5"] ;
23 -> 25 ;
26 [label=<gini = 0.0<br/>samples = 13<br/>value = [19, 0]>, fillcolor="#e58139"] ;
22 -> 26 ;
27 [label=<DAYS_BIRTH &le; 0.073<br/>gini = 0.443<br/>samples = 216<br/>value = [234.0, 472.0]>, fillcolor="#9bcef2"] ;
3 -> 27 ;
28 [label=<gini = 0.0<br/>samples = 12<br/>value = [22, 0]>, fillcolor="#e58139"] ;
27 -> 28 ;
29 [label=<AMT_INCOME_TOTAL AMT_GOODS_PRICE &le; 0.003<br/>gini = 0.428<br/>samples = 204<br/>value = [212, 472]>, fillcolor="#92c9f1"] ;
27 -> 29 ;
30 [label=<AMT_CREDIT &le; 1035416.25<br/>gini = 0.405<br/>samples = 186<br/>value = [184, 468]>, fillcolor="#87c4ef"] ;
29 -> 30 ;
31 [label=<REGION_POPULATION_RELATIVE &le; 0.377<br/>gini = 0.387<br/>samples = 173<br/>value = [164, 460]>, fillcolor="#80c0ee"] ;
30 -> 31 ;
32 [label=<DAYS_REGISTRATION &le; 0.597<br/>gini = 0.418<br/>samples = 154<br/>value = [154, 364]>, fillcolor="#8dc6f0"] ;
31 -> 32 ;
33 [label=<AMT_CREDIT EXT_SOURCE_2 &le; 0.024<br/>gini = 0.41<br/>samples = 150<br/>value = [147, 364]>, fillcolor="#89c5f0"] ;
32 -> 33 ;
34 [label=<gini = 0.373<br/>samples = 124<br/>value = [112, 340]>, fillcolor="#7abdee"] ;
33 -> 34 ;
35 [label=<gini = 0.483<br/>samples = 26<br/>value = [35, 24]>, fillcolor="#f7d7c1"] ;
33 -> 35 ;
36 [label=<gini = 0.0<br/>samples = 4<br/>value = [7, 0]>, fillcolor="#e58139"] ;
32 -> 36 ;
37 [label=<AMT_INCOME_TOTAL AMT_CREDIT &le; 0.0<br/>gini = 0.171<br/>samples = 19<br/>value = [10, 96]>, fillcolor="#4ea7e8"] ;
31 -> 37 ;
38 [label=<AMT_CREDIT AMT_GOODS_PRICE &le; 0.004<br/>gini = 0.465<br/>samples = 6<br/>value = [7, 12]>, fillcolor="#acd6f4"] ;
37 -> 38 ;
39 [label=<gini = 0.245<br/>samples = 3<br/>value = [2, 12]>, fillcolor="#5aade9"] ;
38 -> 39 ;
40 [label=<gini = 0.0<br/>samples = 3<br/>value = [5, 0]>, fillcolor="#e58139"] ;
38 -> 40 ;
41 [label=<ORGANIZATION_TYPE &le; 2.5<br/>gini = 0.067<br/>samples = 13<br/>value = [3, 84]>, fillcolor="#40a0e6"] ;
37 -> 41 ;
42 [label=<gini = 0.0<br/>samples = 1<br/>value = [1, 0]>, fillcolor="#e58139"] ;
41 -> 42 ;
43 [label=<gini = 0.045<br/>samples = 12<br/>value = [2, 84]>, fillcolor="#3e9fe6"] ;
41 -> 43 ;
44 [label=<AMT_INCOME_TOTAL EXT_SOURCE_2 &le; 0.0<br/>gini = 0.408<br/>samples = 13<br/>value = [20, 8]>, fillcolor="#efb388"] ;
30 -> 44 ;
45 [label=<DAYS_ID_PUBLISH &le; 0.794<br/>gini = 0.397<br/>samples = 4<br/>value = [3, 8]>, fillcolor="#83c2ef"] ;
44 -> 45 ;
46 [label=<gini = 0.0<br/>samples = 2<br/>value = [3, 0]>, fillcolor="#e58139"] ;
45 -> 46 ;
47 [label=<gini = 0.0<br/>samples = 2<br/>value = [0, 8]>, fillcolor="#399de5"] ;
45 -> 47 ;
48 [label=<gini = 0.0<br/>samples = 9<br/>value = [17, 0]>, fillcolor="#e58139"] ;
44 -> 48 ;
49 [label=<DAYS_BIRTH &le; 0.126<br/>gini = 0.219<br/>samples = 18<br/>value = [28, 4]>, fillcolor="#e99355"] ;
29 -> 49 ;
50 [label=<AMT_ANNUITY^2 &le; 0.038<br/>gini = 0.32<br/>samples = 2<br/>value = [1, 4]>, fillcolor="#6ab6ec"] ;
49 -> 50 ;
51 [label=<gini = 0.0<br/>samples = 1<br/>value = [0, 4]>, fillcolor="#399de5"] ;
50 -> 51 ;
52 [label=<gini = 0.0<br/>samples = 1<br/>value = [1, 0]>, fillcolor="#e58139"] ;
50 -> 52 ;
53 [label=<gini = 0.0<br/>samples = 16<br/>value = [27, 0]>, fillcolor="#e58139"] ;
49 -> 53 ;
54 [label=<AMT_CREDIT^2 &le; 0.002<br/>gini = 0.353<br/>samples = 4088<br/>value = [3479, 11720]>, fillcolor="#74baed"] ;
2 -> 54 ;
55 [label=<EXT_SOURCE_3 &le; 0.638<br/>gini = 0.441<br/>samples = 483<br/>value = [502, 1028]>, fillcolor="#9acdf2"] ;
54 -> 55 ;
56 [label=<REGION_POPULATION_RELATIVE &le; 0.564<br/>gini = 0.401<br/>samples = 389<br/>value = [374, 972]>, fillcolor="#85c3ef"] ;
55 -> 56 ;
57 [label=<ORGANIZATION_TYPE &le; 1.5<br/>gini = 0.395<br/>samples = 381<br/>value = [362.0, 972.0]>, fillcolor="#83c1ef"] ;
56 -> 57 ;
58 [label=<AMT_ANNUITY &le; 0.023<br/>gini = 0.266<br/>samples = 85<br/>value = [60, 320]>, fillcolor="#5eafea"] ;
57 -> 58 ;
59 [label=<DAYS_LAST_PHONE_CHANGE &le; 0.922<br/>gini = 0.498<br/>samples = 12<br/>value = [18, 16]>, fillcolor="#fcf1e9"] ;
58 -> 59 ;
60 [label=<gini = 0.0<br/>samples = 6<br/>value = [13, 0]>, fillcolor="#e58139"] ;
59 -> 60 ;
61 [label=<AMT_GOODS_PRICE EXT_SOURCE_2 &le; 0.003<br/>gini = 0.363<br/>samples = 6<br/>value = [5, 16]>, fillcolor="#77bced"] ;
59 -> 61 ;
62 [label=<gini = 0.198<br/>samples = 4<br/>value = [2, 16]>, fillcolor="#52a9e8"] ;
61 -> 62 ;
63 [label=<gini = 0.0<br/>samples = 2<br/>value = [3, 0]>, fillcolor="#e58139"] ;
61 -> 63 ;
64 [label=<AMT_CREDIT &le; 176701.5<br/>gini = 0.213<br/>samples = 73<br/>value = [42, 304]>, fillcolor="#54abe9"] ;
58 -> 64 ;
65 [label=<DAYS_EMPLOYED &le; 0.898<br/>gini = 0.138<br/>samples = 46<br/>value = [19, 236]>, fillcolor="#49a5e7"] ;
64 -> 65 ;
66 [label=<gini = 0.32<br/>samples = 11<br/>value = [9, 36]>, fillcolor="#6ab6ec"] ;
65 -> 66 ;
67 [label=<gini = 0.091<br/>samples = 35<br/>value = [10, 200]>, fillcolor="#43a2e6"] ;
65 -> 67 ;
68 [label=<EXT_SOURCE_2^2 &le; 0.0<br/>gini = 0.378<br/>samples = 27<br/>value = [23, 68]>, fillcolor="#7cbeee"] ;
64 -> 68 ;
69 [label=<gini = 0.0<br/>samples = 2<br/>value = [3, 0]>, fillcolor="#e58139"] ;
68 -> 69 ;
70 [label=<gini = 0.351<br/>samples = 25<br/>value = [20, 68]>, fillcolor="#73baed"] ;
68 -> 70 ;
71 [label=<AMT_INCOME_TOTAL AMT_ANNUITY &le; 0.0<br/>gini = 0.433<br/>samples = 296<br/>value = [302, 652]>, fillcolor="#95caf1"] ;
57 -> 71 ;
72 [label=<REGION_POPULATION_RELATIVE &le; 0.109<br/>gini = 0.478<br/>samples = 32<br/>value = [49, 32]>, fillcolor="#f6d3ba"] ;
71 -> 72 ;
73 [label=<DAYS_REGISTRATION &le; 0.837<br/>gini = 0.428<br/>samples = 7<br/>value = [9, 20]>, fillcolor="#92c9f1"] ;
72 -> 73 ;
74 [label=<gini = 0.0<br/>samples = 2<br/>value = [0, 16]>, fillcolor="#399de5"] ;
73 -> 74 ;
75 [label=<gini = 0.426<br/>samples = 5<br/>value = [9, 4]>, fillcolor="#f1b991"] ;
73 -> 75 ;
76 [label=<DAYS_REGISTRATION &le; 0.959<br/>gini = 0.355<br/>samples = 25<br/>value = [40, 12]>, fillcolor="#eda774"] ;
72 -> 76 ;
77 [label=<gini = 0.18<br/>samples = 21<br/>value = [36, 4]>, fillcolor="#e88f4f"] ;
76 -> 77 ;
78 [label=<gini = 0.444<br/>samples = 4<br/>value = [4, 8]>, fillcolor="#9ccef2"] ;
76 -> 78 ;
79 [label=<AMT_GOODS_PRICE EXT_SOURCE_2 &le; 0.006<br/>gini = 0.412<br/>samples = 264<br/>value = [253.0, 620.0]>, fillcolor="#8ac5f0"] ;
71 -> 79 ;
80 [label=<NAME_INCOME_TYPE &le; 2.5<br/>gini = 0.389<br/>samples = 233<br/>value = [213, 592]>, fillcolor="#80c0ee"] ;
79 -> 80 ;
81 [label=<gini = 0.361<br/>samples = 202<br/>value = [168, 544]>, fillcolor="#76bbed"] ;
80 -> 81 ;
82 [label=<gini = 0.499<br/>samples = 31<br/>value = [45, 48]>, fillcolor="#f3f9fd"] ;
80 -> 82 ;
83 [label=<OBS_30_CNT_SOCIAL_CIRCLE &le; 0.5<br/>gini = 0.484<br/>samples = 31<br/>value = [40, 28]>, fillcolor="#f7d9c4"] ;
79 -> 83 ;
84 [label=<gini = 0.485<br/>samples = 15<br/>value = [17, 24]>, fillcolor="#c5e2f7"] ;
83 -> 84 ;
85 [label=<gini = 0.252<br/>samples = 16<br/>value = [23, 4]>, fillcolor="#ea975b"] ;
83 -> 85 ;
86 [label=<gini = 0.0<br/>samples = 8<br/>value = [12, 0]>, fillcolor="#e58139"] ;
56 -> 86 ;
87 [label=<DAYS_ID_PUBLISH &le; 0.953<br/>gini = 0.423<br/>samples = 94<br/>value = [128, 56]>, fillcolor="#f0b890"] ;
55 -> 87 ;
88 [label=<ORGANIZATION_TYPE &le; 41.0<br/>gini = 0.397<br/>samples = 93<br/>value = [128, 48]>, fillcolor="#efb083"] ;
87 -> 88 ;
89 [label=<AMT_ANNUITY EXT_SOURCE_2 &le; 0.001<br/>gini = 0.343<br/>samples = 91<br/>value = [128, 36]>, fillcolor="#eca471"] ;
88 -> 89 ;
90 [label=<AMT_GOODS_PRICE EXT_SOURCE_2 &le; 0.0<br/>gini = 0.5<br/>samples = 12<br/>value = [12, 12]>, fillcolor="#ffffff"] ;
89 -> 90 ;
91 [label=<gini = 0.0<br/>samples = 5<br/>value = [7, 0]>, fillcolor="#e58139"] ;
90 -> 91 ;
92 [label=<DEF_30_CNT_SOCIAL_CIRCLE &le; 0.5<br/>gini = 0.415<br/>samples = 7<br/>value = [5, 12]>, fillcolor="#8bc6f0"] ;
90 -> 92 ;
93 [label=<gini = 0.245<br/>samples = 5<br/>value = [2, 12]>, fillcolor="#5aade9"] ;
92 -> 93 ;
94 [label=<gini = 0.0<br/>samples = 2<br/>value = [3, 0]>, fillcolor="#e58139"] ;
92 -> 94 ;
95 [label=<DAYS_ID_PUBLISH &le; 0.44<br/>gini = 0.284<br/>samples = 79<br/>value = [116.0, 24.0]>, fillcolor="#ea9b62"] ;
89 -> 95 ;
96 [label=<EXT_SOURCE_2^2 &le; 0.008<br/>gini = 0.448<br/>samples = 28<br/>value = [39, 20]>, fillcolor="#f2c29f"] ;
95 -> 96 ;
97 [label=<gini = 0.0<br/>samples = 8<br/>value = [13, 0]>, fillcolor="#e58139"] ;
96 -> 97 ;
98 [label=<gini = 0.491<br/>samples = 20<br/>value = [26.0, 20.0]>, fillcolor="#f9e2d1"] ;
96 -> 98 ;
99 [label=<AMT_ANNUITY^2 &le; 0.001<br/>gini = 0.094<br/>samples = 51<br/>value = [77, 4]>, fillcolor="#e68843"] ;
95 -> 99 ;
100 [label=<gini = 0.0<br/>samples = 30<br/>value = [50, 0]>, fillcolor="#e58139"] ;
99 -> 100 ;
101 [label=<gini = 0.225<br/>samples = 21<br/>value = [27, 4]>, fillcolor="#e99456"] ;
99 -> 101 ;
102 [label=<gini = 0.0<br/>samples = 2<br/>value = [0, 12]>, fillcolor="#399de5"] ;
88 -> 102 ;
103 [label=<gini = 0.0<br/>samples = 1<br/>value = [0, 8]>, fillcolor="#399de5"] ;
87 -> 103 ;
104 [label=<AMT_CREDIT AMT_GOODS_PRICE &le; 0.026<br/>gini = 0.341<br/>samples = 3605<br/>value = [2977, 10692]>, fillcolor="#70b8ec"] ;
54 -> 104 ;
105 [label=<EXT_SOURCE_3 &le; 0.6<br/>gini = 0.321<br/>samples = 2650<br/>value = [2074, 8268]>, fillcolor="#6bb6ec"] ;
104 -> 105 ;
106 [label=<AMT_CREDIT EXT_SOURCE_2 &le; 0.003<br/>gini = 0.284<br/>samples = 2040<br/>value = [1436, 6944]>, fillcolor="#62b1ea"] ;
105 -> 106 ;
107 [label=<AMT_INCOME_TOTAL &le; 0.004<br/>gini = 0.229<br/>samples = 403<br/>value = [237.0, 1556.0]>, fillcolor="#57ace9"] ;
106 -> 107 ;
108 [label=<AMT_INCOME_TOTAL EXT_SOURCE_2 &le; 0.001<br/>gini = 0.228<br/>samples = 402<br/>value = [235, 1556]>, fillcolor="#57ace9"] ;
107 -> 108 ;
109 [label=<EXT_SOURCE_3 &le; 0.278<br/>gini = 0.227<br/>samples = 401<br/>value = [233.0, 1556.0]>, fillcolor="#57ace9"] ;
108 -> 109 ;
110 [label=<gini = 0.147<br/>samples = 128<br/>value = [52, 600]>, fillcolor="#4aa5e7"] ;
109 -> 110 ;
111 [label=<gini = 0.268<br/>samples = 273<br/>value = [181, 956]>, fillcolor="#5eb0ea"] ;
109 -> 111 ;
112 [label=<gini = 0.0<br/>samples = 1<br/>value = [2, 0]>, fillcolor="#e58139"] ;
108 -> 112 ;
113 [label=<gini = 0.0<br/>samples = 1<br/>value = [2, 0]>, fillcolor="#e58139"] ;
107 -> 113 ;
114 [label=<DAYS_BIRTH &le; 0.862<br/>gini = 0.298<br/>samples = 1637<br/>value = [1199, 5388]>, fillcolor="#65b3eb"] ;
106 -> 114 ;
115 [label=<AMT_INCOME_TOTAL AMT_CREDIT &le; 0.001<br/>gini = 0.279<br/>samples = 1312<br/>value = [913, 4532]>, fillcolor="#61b1ea"] ;
114 -> 115 ;
116 [label=<AMT_INCOME_TOTAL EXT_SOURCE_2 &le; 0.002<br/>gini = 0.317<br/>samples = 574<br/>value = [452, 1832]>, fillcolor="#6ab5eb"] ;
115 -> 116 ;
117 [label=<gini = 0.315<br/>samples = 571<br/>value = [447.0, 1832.0]>, fillcolor="#69b5eb"] ;
116 -> 117 ;
118 [label=<gini = 0.0<br/>samples = 3<br/>value = [5, 0]>, fillcolor="#e58139"] ;
116 -> 118 ;
119 [label=<NAME_EDUCATION_TYPE &le; 0.5<br/>gini = 0.249<br/>samples = 738<br/>value = [461.0, 2700.0]>, fillcolor="#5baee9"] ;
115 -> 119 ;
120 [label=<gini = 0.23<br/>samples = 566<br/>value = [334, 2188]>, fillcolor="#57ace9"] ;
119 -> 120 ;
121 [label=<gini = 0.318<br/>samples = 172<br/>value = [127, 512]>, fillcolor="#6ab5eb"] ;
119 -> 121 ;
122 [label=<AMT_ANNUITY EXT_SOURCE_2 &le; 0.036<br/>gini = 0.375<br/>samples = 325<br/>value = [286, 856]>, fillcolor="#7bbeee"] ;
114 -> 122 ;
123 [label=<FLAG_DOCUMENT_3 &le; 0.5<br/>gini = 0.369<br/>samples = 321<br/>value = [277, 856]>, fillcolor="#79bded"] ;
122 -> 123 ;
124 [label=<gini = 0.469<br/>samples = 75<br/>value = [84, 140]>, fillcolor="#b0d8f5"] ;
123 -> 124 ;
125 [label=<gini = 0.334<br/>samples = 246<br/>value = [193, 716]>, fillcolor="#6eb7ec"] ;
123 -> 125 ;
126 [label=<gini = 0.0<br/>samples = 4<br/>value = [9, 0]>, fillcolor="#e58139"] ;
122 -> 126 ;
127 [label=<AMT_GOODS_PRICE^2 &le; 0.006<br/>gini = 0.439<br/>samples = 610<br/>value = [638, 1324]>, fillcolor="#98ccf2"] ;
105 -> 127 ;
128 [label=<AMT_CREDIT EXT_SOURCE_2 &le; 0.001<br/>gini = 0.478<br/>samples = 283<br/>value = [332.0, 508.0]>, fillcolor="#baddf6"] ;
127 -> 128 ;
129 [label=<DAYS_BIRTH &le; 0.814<br/>gini = 0.18<br/>samples = 15<br/>value = [8, 72]>, fillcolor="#4fa8e8"] ;
128 -> 129 ;
130 [label=<AMT_CREDIT AMT_ANNUITY &le; 0.006<br/>gini = 0.077<br/>samples = 13<br/>value = [3, 72]>, fillcolor="#41a1e6"] ;
129 -> 130 ;
131 [label=<gini = 0.027<br/>samples = 12<br/>value = [1, 72]>, fillcolor="#3c9ee5"] ;
130 -> 131 ;
132 [label=<gini = 0.0<br/>samples = 1<br/>value = [2, 0]>, fillcolor="#e58139"] ;
130 -> 132 ;
133 [label=<gini = 0.0<br/>samples = 2<br/>value = [5, 0]>, fillcolor="#e58139"] ;
129 -> 133 ;
134 [label=<NAME_TYPE_SUITE &le; 2.5<br/>gini = 0.489<br/>samples = 268<br/>value = [324, 436]>, fillcolor="#cce6f8"] ;
128 -> 134 ;
135 [label=<AMT_CREDIT^2 &le; 0.007<br/>gini = 0.485<br/>samples = 259<br/>value = [307.0, 436.0]>, fillcolor="#c4e2f7"] ;
134 -> 135 ;
136 [label=<gini = 0.495<br/>samples = 228<br/>value = [284, 344]>, fillcolor="#dceefa"] ;
135 -> 136 ;
137 [label=<gini = 0.32<br/>samples = 31<br/>value = [23, 92]>, fillcolor="#6ab6ec"] ;
135 -> 137 ;
138 [label=<gini = 0.0<br/>samples = 9<br/>value = [17, 0]>, fillcolor="#e58139"] ;
134 -> 138 ;
139 [label=<OBS_30_CNT_SOCIAL_CIRCLE &le; 9.0<br/>gini = 0.397<br/>samples = 327<br/>value = [306, 816]>, fillcolor="#83c2ef"] ;
127 -> 139 ;
140 [label=<AMT_GOODS_PRICE^2 &le; 0.012<br/>gini = 0.393<br/>samples = 323<br/>value = [299, 816]>, fillcolor="#82c1ef"] ;
139 -> 140 ;
141 [label=<AMT_CREDIT EXT_SOURCE_2 &le; 0.01<br/>gini = 0.34<br/>samples = 196<br/>value = [161, 580]>, fillcolor="#70b8ec"] ;
140 -> 141 ;
142 [label=<gini = 0.258<br/>samples = 96<br/>value = [61.0, 340.0]>, fillcolor="#5dafea"] ;
141 -> 142 ;
143 [label=<gini = 0.415<br/>samples = 100<br/>value = [100.0, 240.0]>, fillcolor="#8bc6f0"] ;
141 -> 143 ;
144 [label=<NAME_TYPE_SUITE &le; 1.5<br/>gini = 0.466<br/>samples = 127<br/>value = [138, 236]>, fillcolor="#add6f4"] ;
140 -> 144 ;
145 [label=<gini = 0.453<br/>samples = 118<br/>value = [123, 232]>, fillcolor="#a2d1f3"] ;
144 -> 145 ;
146 [label=<gini = 0.332<br/>samples = 9<br/>value = [15, 4]>, fillcolor="#eca36e"] ;
144 -> 146 ;
147 [label=<gini = 0.0<br/>samples = 4<br/>value = [7, 0]>, fillcolor="#e58139"] ;
139 -> 147 ;
148 [label=<AMT_GOODS_PRICE EXT_SOURCE_2 &le; 0.021<br/>gini = 0.395<br/>samples = 955<br/>value = [903.0, 2424.0]>, fillcolor="#83c2ef"] ;
104 -> 148 ;
149 [label=<AMT_CREDIT EXT_SOURCE_2 &le; 0.001<br/>gini = 0.332<br/>samples = 502<br/>value = [416, 1564]>, fillcolor="#6eb7ec"] ;
148 -> 149 ;
150 [label=<AMT_ANNUITY^2 &le; 0.047<br/>gini = 0.124<br/>samples = 23<br/>value = [10, 140]>, fillcolor="#47a4e7"] ;
149 -> 150 ;
151 [label=<DAYS_EMPLOYED &le; 0.888<br/>gini = 0.102<br/>samples = 22<br/>value = [8, 140]>, fillcolor="#44a3e6"] ;
150 -> 151 ;
152 [label=<CNT_FAM_MEMBERS &le; 3.5<br/>gini = 0.32<br/>samples = 7<br/>value = [6, 24]>, fillcolor="#6ab6ec"] ;
151 -> 152 ;
153 [label=<gini = 0.077<br/>samples = 4<br/>value = [1, 24]>, fillcolor="#41a1e6"] ;
152 -> 153 ;
154 [label=<gini = 0.0<br/>samples = 3<br/>value = [5, 0]>, fillcolor="#e58139"] ;
152 -> 154 ;
155 [label=<DAYS_REGISTRATION &le; 0.658<br/>gini = 0.033<br/>samples = 15<br/>value = [2, 116]>, fillcolor="#3c9fe5"] ;
151 -> 155 ;
156 [label=<gini = 0.0<br/>samples = 1<br/>value = [1, 0]>, fillcolor="#e58139"] ;
155 -> 156 ;
157 [label=<gini = 0.017<br/>samples = 14<br/>value = [1, 116]>, fillcolor="#3b9ee5"] ;
155 -> 157 ;
158 [label=<gini = 0.0<br/>samples = 1<br/>value = [2, 0]>, fillcolor="#e58139"] ;
150 -> 158 ;
159 [label=<NAME_CONTRACT_TYPE &le; 0.5<br/>gini = 0.345<br/>samples = 479<br/>value = [406, 1424]>, fillcolor="#71b9ec"] ;
149 -> 159 ;
160 [label=<EXT_SOURCE_3 &le; 0.602<br/>gini = 0.34<br/>samples = 474<br/>value = [396, 1424]>, fillcolor="#70b8ec"] ;
159 -> 160 ;
161 [label=<AMT_INCOME_TOTAL &le; 0.003<br/>gini = 0.304<br/>samples = 332<br/>value = [257, 1120]>, fillcolor="#66b3eb"] ;
160 -> 161 ;
162 [label=<gini = 0.297<br/>samples = 327<br/>value = [247, 1112]>, fillcolor="#65b3eb"] ;
161 -> 162 ;
163 [label=<gini = 0.494<br/>samples = 5<br/>value = [10, 8]>, fillcolor="#fae6d7"] ;
161 -> 163 ;
164 [label=<AMT_REQ_CREDIT_BUREAU_YEAR &le; 0.5<br/>gini = 0.431<br/>samples = 142<br/>value = [139, 304]>, fillcolor="#94caf1"] ;
160 -> 164 ;
165 [label=<gini = 0.249<br/>samples = 41<br/>value = [26, 152]>, fillcolor="#5baee9"] ;
164 -> 165 ;
166 [label=<gini = 0.489<br/>samples = 101<br/>value = [113, 152]>, fillcolor="#cce6f8"] ;
164 -> 166 ;
167 [label=<gini = 0.0<br/>samples = 5<br/>value = [10, 0]>, fillcolor="#e58139"] ;
159 -> 167 ;
168 [label=<FLAG_DOCUMENT_5 &le; 0.5<br/>gini = 0.462<br/>samples = 453<br/>value = [487.0, 860.0]>, fillcolor="#a9d4f4"] ;
148 -> 168 ;
169 [label=<AMT_INCOME_TOTAL^2 &le; 0.0<br/>gini = 0.458<br/>samples = 446<br/>value = [475, 860]>, fillcolor="#a6d3f3"] ;
168 -> 169 ;
170 [label=<DAYS_REGISTRATION &le; 0.993<br/>gini = 0.469<br/>samples = 413<br/>value = [453, 752]>, fillcolor="#b0d8f5"] ;
169 -> 170 ;
171 [label=<AMT_ANNUITY EXT_SOURCE_2 &le; 0.014<br/>gini = 0.46<br/>samples = 393<br/>value = [419, 748]>, fillcolor="#a8d4f4"] ;
170 -> 171 ;
172 [label=<gini = 0.388<br/>samples = 39<br/>value = [56, 20]>, fillcolor="#eeae80"] ;
171 -> 172 ;
173 [label=<gini = 0.444<br/>samples = 354<br/>value = [363, 728]>, fillcolor="#9ccef2"] ;
171 -> 173 ;
174 [label=<EXT_SOURCE_2^2 &le; 0.03<br/>gini = 0.188<br/>samples = 20<br/>value = [34, 4]>, fillcolor="#e89050"] ;
170 -> 174 ;
175 [label=<gini = 0.0<br/>samples = 17<br/>value = [32, 0]>, fillcolor="#e58139"] ;
174 -> 175 ;
176 [label=<gini = 0.444<br/>samples = 3<br/>value = [2, 4]>, fillcolor="#9ccef2"] ;
174 -> 176 ;
177 [label=<AMT_INCOME_TOTAL AMT_ANNUITY &le; 0.013<br/>gini = 0.281<br/>samples = 33<br/>value = [22, 108]>, fillcolor="#61b1ea"] ;
169 -> 177 ;
178 [label=<OBS_30_CNT_SOCIAL_CIRCLE &le; 4.5<br/>gini = 0.254<br/>samples = 30<br/>value = [19, 108]>, fillcolor="#5caeea"] ;
177 -> 178 ;
179 [label=<gini = 0.214<br/>samples = 26<br/>value = [15, 108]>, fillcolor="#54abe9"] ;
178 -> 179 ;
180 [label=<gini = 0.0<br/>samples = 4<br/>value = [4, 0]>, fillcolor="#e58139"] ;
178 -> 180 ;
181 [label=<gini = 0.0<br/>samples = 3<br/>value = [3, 0]>, fillcolor="#e58139"] ;
177 -> 181 ;
182 [label=<gini = 0.0<br/>samples = 7<br/>value = [12, 0]>, fillcolor="#e58139"] ;
168 -> 182 ;
183 [label=<AMT_CREDIT AMT_GOODS_PRICE &le; 0.044<br/>gini = 0.485<br/>samples = 18822<br/>value = [21980, 31204]>, fillcolor="#c4e2f7"] ;
1 -> 183 ;
184 [label=<EXT_SOURCE_3 &le; 0.604<br/>gini = 0.481<br/>samples = 15994<br/>value = [18479, 27484]>, fillcolor="#bedff6"] ;
183 -> 184 ;
185 [label=<DAYS_BIRTH &le; 0.293<br/>gini = 0.45<br/>samples = 10885<br/>value = [11632, 22452]>, fillcolor="#a0d0f2"] ;
184 -> 185 ;
186 [label=<AMT_CREDIT AMT_GOODS_PRICE &le; 0.004<br/>gini = 0.492<br/>samples = 1964<br/>value = [2350, 3020]>, fillcolor="#d3e9f9"] ;
185 -> 186 ;
187 [label=<AMT_INCOME_TOTAL EXT_SOURCE_2 &le; 0.001<br/>gini = 0.496<br/>samples = 567<br/>value = [719, 604]>, fillcolor="#fbebdf"] ;
186 -> 187 ;
188 [label=<OBS_60_CNT_SOCIAL_CIRCLE &le; 3.0<br/>gini = 0.103<br/>samples = 9<br/>value = [3, 52]>, fillcolor="#44a3e6"] ;
187 -> 188 ;
189 [label=<AMT_CREDIT AMT_ANNUITY &le; 0.003<br/>gini = 0.04<br/>samples = 7<br/>value = [1.0, 48.0]>, fillcolor="#3d9fe6"] ;
188 -> 189 ;
190 [label=<gini = 0.0<br/>samples = 5<br/>value = [0, 44]>, fillcolor="#399de5"] ;
189 -> 190 ;
191 [label=<AMT_CREDIT AMT_ANNUITY &le; 0.003<br/>gini = 0.32<br/>samples = 2<br/>value = [1, 4]>, fillcolor="#6ab6ec"] ;
189 -> 191 ;
192 [label=<gini = 0.0<br/>samples = 1<br/>value = [1, 0]>, fillcolor="#e58139"] ;
191 -> 192 ;
193 [label=<gini = 0.0<br/>samples = 1<br/>value = [0, 4]>, fillcolor="#399de5"] ;
191 -> 193 ;
194 [label=<AMT_INCOME_TOTAL AMT_ANNUITY &le; 0.0<br/>gini = 0.444<br/>samples = 2<br/>value = [2, 4]>, fillcolor="#9ccef2"] ;
188 -> 194 ;
195 [label=<gini = 0.0<br/>samples = 1<br/>value = [2, 0]>, fillcolor="#e58139"] ;
194 -> 195 ;
196 [label=<gini = 0.0<br/>samples = 1<br/>value = [0, 4]>, fillcolor="#399de5"] ;
194 -> 196 ;
197 [label=<AMT_INCOME_TOTAL AMT_ANNUITY &le; 0.0<br/>gini = 0.492<br/>samples = 558<br/>value = [716, 552]>, fillcolor="#f9e2d2"] ;
187 -> 197 ;
198 [label=<NAME_CONTRACT_TYPE &le; 0.5<br/>gini = 0.463<br/>samples = 362<br/>value = [476, 272]>, fillcolor="#f4c9aa"] ;
197 -> 198 ;
199 [label=<EXT_SOURCE_2^2 &le; 0.076<br/>gini = 0.444<br/>samples = 313<br/>value = [426, 212]>, fillcolor="#f2c09c"] ;
198 -> 199 ;
200 [label=<gini = 0.08<br/>samples = 65<br/>value = [92, 4]>, fillcolor="#e68642"] ;
199 -> 200 ;
201 [label=<gini = 0.473<br/>samples = 248<br/>value = [334, 208]>, fillcolor="#f5cfb4"] ;
199 -> 201 ;
202 [label=<AMT_INCOME_TOTAL AMT_ANNUITY &le; 0.0<br/>gini = 0.496<br/>samples = 49<br/>value = [50.0, 60.0]>, fillcolor="#deeffb"] ;
198 -> 202 ;
203 [label=<gini = 0.175<br/>samples = 7<br/>value = [3, 28]>, fillcolor="#4ea8e8"] ;
202 -> 203 ;
204 [label=<gini = 0.482<br/>samples = 42<br/>value = [47.0, 32.0]>, fillcolor="#f7d7c0"] ;
202 -> 204 ;
205 [label=<NAME_EDUCATION_TYPE &le; 0.5<br/>gini = 0.497<br/>samples = 196<br/>value = [240, 280]>, fillcolor="#e3f1fb"] ;
197 -> 205 ;
206 [label=<AMT_GOODS_PRICE &le; 0.036<br/>gini = 0.499<br/>samples = 158<br/>value = [207, 192]>, fillcolor="#fdf6f1"] ;
205 -> 206 ;
207 [label=<gini = 0.48<br/>samples = 59<br/>value = [67.0, 100.0]>, fillcolor="#bedff6"] ;
206 -> 207 ;
208 [label=<gini = 0.479<br/>samples = 99<br/>value = [140, 92]>, fillcolor="#f6d4bb"] ;
206 -> 208 ;
209 [label=<AMT_GOODS_PRICE EXT_SOURCE_2 &le; 0.028<br/>gini = 0.397<br/>samples = 38<br/>value = [33, 88]>, fillcolor="#83c2ef"] ;
205 -> 209 ;
210 [label=<gini = 0.3<br/>samples = 25<br/>value = [18, 80]>, fillcolor="#66b3eb"] ;
209 -> 210 ;
211 [label=<gini = 0.454<br/>samples = 13<br/>value = [15, 8]>, fillcolor="#f3c4a3"] ;
209 -> 211 ;
212 [label=<EXT_SOURCE_2 &le; 0.284<br/>gini = 0.481<br/>samples = 1397<br/>value = [1631, 2416]>, fillcolor="#bfdff7"] ;
186 -> 212 ;
213 [label=<EXT_SOURCE_2^2 &le; 0.033<br/>gini = 0.438<br/>samples = 357<br/>value = [386, 804]>, fillcolor="#98ccf1"] ;
212 -> 213 ;
214 [label=<gini = 0.0<br/>samples = 8<br/>value = [16, 0]>, fillcolor="#e58139"] ;
213 -> 214 ;
215 [label=<DAYS_BIRTH &le; 0.065<br/>gini = 0.432<br/>samples = 349<br/>value = [370, 804]>, fillcolor="#94caf1"] ;
213 -> 215 ;
216 [label=<gini = 0.0<br/>samples = 8<br/>value = [14, 0]>, fillcolor="#e58139"] ;
215 -> 216 ;
217 [label=<OBS_60_CNT_SOCIAL_CIRCLE &le; 13.5<br/>gini = 0.425<br/>samples = 341<br/>value = [356.0, 804.0]>, fillcolor="#91c8f1"] ;
215 -> 217 ;
218 [label=<gini = 0.421<br/>samples = 337<br/>value = [346.0, 804.0]>, fillcolor="#8ec7f0"] ;
217 -> 218 ;
219 [label=<gini = 0.0<br/>samples = 4<br/>value = [10, 0]>, fillcolor="#e58139"] ;
217 -> 219 ;
220 [label=<EXT_SOURCE_2^2 &le; 0.107<br/>gini = 0.492<br/>samples = 1040<br/>value = [1245, 1612]>, fillcolor="#d2e9f9"] ;
212 -> 220 ;
221 [label=<DAYS_REGISTRATION &le; 0.666<br/>gini = 0.495<br/>samples = 184<br/>value = [245, 200]>, fillcolor="#fae8db"] ;
220 -> 221 ;
222 [label=<AMT_CREDIT AMT_GOODS_PRICE &le; 0.009<br/>gini = 0.372<br/>samples = 70<br/>value = [110, 36]>, fillcolor="#eeaa7a"] ;
221 -> 222 ;
223 [label=<gini = 0.499<br/>samples = 25<br/>value = [30, 32]>, fillcolor="#f3f9fd"] ;
222 -> 223 ;
224 [label=<gini = 0.091<br/>samples = 45<br/>value = [80, 4]>, fillcolor="#e68743"] ;
222 -> 224 ;
225 [label=<OBS_60_CNT_SOCIAL_CIRCLE &le; 0.5<br/>gini = 0.495<br/>samples = 114<br/>value = [135, 164]>, fillcolor="#dceefa"] ;
221 -> 225 ;
226 [label=<gini = 0.48<br/>samples = 62<br/>value = [84, 56]>, fillcolor="#f6d5bd"] ;
225 -> 226 ;
227 [label=<gini = 0.436<br/>samples = 52<br/>value = [51, 108]>, fillcolor="#96cbf1"] ;
225 -> 227 ;
228 [label=<EXT_SOURCE_3 &le; 0.372<br/>gini = 0.485<br/>samples = 856<br/>value = [1000, 1412]>, fillcolor="#c5e2f7"] ;
220 -> 228 ;
229 [label=<DEF_60_CNT_SOCIAL_CIRCLE &le; 0.5<br/>gini = 0.403<br/>samples = 221<br/>value = [207.0, 532.0]>, fillcolor="#86c3ef"] ;
228 -> 229 ;
230 [label=<gini = 0.426<br/>samples = 186<br/>value = [187.0, 420.0]>, fillcolor="#91c9f1"] ;
229 -> 230 ;
231 [label=<gini = 0.257<br/>samples = 35<br/>value = [20, 112]>, fillcolor="#5caeea"] ;
229 -> 231 ;
232 [label=<AMT_GOODS_PRICE &le; 0.166<br/>gini = 0.499<br/>samples = 635<br/>value = [793, 880]>, fillcolor="#ebf5fc"] ;
228 -> 232 ;
233 [label=<gini = 0.497<br/>samples = 612<br/>value = [753.0, 876.0]>, fillcolor="#e3f1fb"] ;
232 -> 233 ;
234 [label=<gini = 0.165<br/>samples = 23<br/>value = [40, 4]>, fillcolor="#e88e4d"] ;
232 -> 234 ;
235 [label=<AMT_CREDIT^2 &le; 0.002<br/>gini = 0.438<br/>samples = 8921<br/>value = [9282, 19432]>, fillcolor="#98ccf1"] ;
185 -> 235 ;
236 [label=<AMT_GOODS_PRICE EXT_SOURCE_2 &le; 0.005<br/>gini = 0.475<br/>samples = 1317<br/>value = [1466, 2320]>, fillcolor="#b6dbf5"] ;
235 -> 236 ;
237 [label=<AMT_CREDIT &le; 75564.0<br/>gini = 0.36<br/>samples = 54<br/>value = [78, 24]>, fillcolor="#eda876"] ;
236 -> 237 ;
238 [label=<DAYS_REGISTRATION &le; 0.955<br/>gini = 0.128<br/>samples = 36<br/>value = [54, 4]>, fillcolor="#e78a48"] ;
237 -> 238 ;
239 [label=<gini = 0.0<br/>samples = 32<br/>value = [51, 0]>, fillcolor="#e58139"] ;
238 -> 239 ;
240 [label=<AMT_INCOME_TOTAL AMT_GOODS_PRICE &le; 0.0<br/>gini = 0.49<br/>samples = 4<br/>value = [3, 4]>, fillcolor="#cee6f8"] ;
238 -> 240 ;
241 [label=<gini = 0.0<br/>samples = 1<br/>value = [0, 4]>, fillcolor="#399de5"] ;
240 -> 241 ;
242 [label=<gini = 0.0<br/>samples = 3<br/>value = [3, 0]>, fillcolor="#e58139"] ;
240 -> 242 ;
243 [label=<REGION_POPULATION_RELATIVE &le; 0.257<br/>gini = 0.496<br/>samples = 18<br/>value = [24, 20]>, fillcolor="#fbeade"] ;
237 -> 243 ;
244 [label=<DAYS_LAST_PHONE_CHANGE &le; 0.893<br/>gini = 0.444<br/>samples = 9<br/>value = [10, 20]>, fillcolor="#9ccef2"] ;
243 -> 244 ;
245 [label=<gini = 0.0<br/>samples = 4<br/>value = [9, 0]>, fillcolor="#e58139"] ;
244 -> 245 ;
246 [label=<gini = 0.091<br/>samples = 5<br/>value = [1, 20]>, fillcolor="#43a2e6"] ;
244 -> 246 ;
247 [label=<gini = 0.0<br/>samples = 9<br/>value = [14, 0]>, fillcolor="#e58139"] ;
243 -> 247 ;
248 [label=<NAME_FAMILY_STATUS &le; 0.5<br/>gini = 0.47<br/>samples = 1263<br/>value = [1388, 2296]>, fillcolor="#b1d8f5"] ;
236 -> 248 ;
249 [label=<AMT_CREDIT^2 &le; 0.001<br/>gini = 0.428<br/>samples = 352<br/>value = [341, 756]>, fillcolor="#92c9f1"] ;
248 -> 249 ;
250 [label=<NAME_INCOME_TYPE &le; 0.5<br/>gini = 0.332<br/>samples = 100<br/>value = [83, 312]>, fillcolor="#6eb7ec"] ;
249 -> 250 ;
251 [label=<gini = 0.289<br/>samples = 75<br/>value = [56, 264]>, fillcolor="#63b2eb"] ;
250 -> 251 ;
252 [label=<gini = 0.461<br/>samples = 25<br/>value = [27, 48]>, fillcolor="#a8d4f4"] ;
250 -> 252 ;
253 [label=<AMT_ANNUITY &le; 0.065<br/>gini = 0.465<br/>samples = 252<br/>value = [258, 444]>, fillcolor="#acd6f4"] ;
249 -> 253 ;
254 [label=<gini = 0.457<br/>samples = 244<br/>value = [242.0, 444.0]>, fillcolor="#a5d2f3"] ;
253 -> 254 ;
255 [label=<gini = 0.0<br/>samples = 8<br/>value = [16, 0]>, fillcolor="#e58139"] ;
253 -> 255 ;
256 [label=<AMT_CREDIT EXT_SOURCE_2 &le; 0.027<br/>gini = 0.482<br/>samples = 911<br/>value = [1047.0, 1540.0]>, fillcolor="#c0e0f7"] ;
248 -> 256 ;
257 [label=<REGION_POPULATION_RELATIVE &le; 0.251<br/>gini = 0.48<br/>samples = 898<br/>value = [1023, 1540]>, fillcolor="#bddef6"] ;
256 -> 257 ;
258 [label=<gini = 0.456<br/>samples = 461<br/>value = [506.0, 936.0]>, fillcolor="#a4d2f3"] ;
257 -> 258 ;
259 [label=<gini = 0.497<br/>samples = 437<br/>value = [517, 604]>, fillcolor="#e2f1fb"] ;
257 -> 259 ;
260 [label=<gini = 0.0<br/>samples = 13<br/>value = [24, 0]>, fillcolor="#e58139"] ;
256 -> 260 ;
261 [label=<AMT_CREDIT &le; 666618.75<br/>gini = 0.43<br/>samples = 7604<br/>value = [7816, 17112]>, fillcolor="#93caf1"] ;
235 -> 261 ;
262 [label=<AMT_GOODS_PRICE^2 &le; 0.012<br/>gini = 0.422<br/>samples = 6125<br/>value = [6171.0, 14200.0]>, fillcolor="#8fc8f0"] ;
261 -> 262 ;
263 [label=<CODE_GENDER &le; 0.5<br/>gini = 0.409<br/>samples = 5035<br/>value = [4903.0, 12228.0]>, fillcolor="#88c4ef"] ;
262 -> 263 ;
264 [label=<AMT_ANNUITY EXT_SOURCE_2 &le; 0.013<br/>gini = 0.382<br/>samples = 2042<br/>value = [1869, 5404]>, fillcolor="#7dbfee"] ;
263 -> 264 ;
265 [label=<gini = 0.49<br/>samples = 39<br/>value = [53.0, 40.0]>, fillcolor="#f9e0ce"] ;
264 -> 265 ;
266 [label=<gini = 0.378<br/>samples = 2003<br/>value = [1816, 5364]>, fillcolor="#7cbeee"] ;
264 -> 266 ;
267 [label=<AMT_CREDIT AMT_ANNUITY &le; 0.009<br/>gini = 0.426<br/>samples = 2993<br/>value = [3034.0, 6824.0]>, fillcolor="#91c9f1"] ;
263 -> 267 ;
268 [label=<gini = 0.454<br/>samples = 1997<br/>value = [2154, 4024]>, fillcolor="#a3d1f3"] ;
267 -> 268 ;
269 [label=<gini = 0.364<br/>samples = 996<br/>value = [880, 2800]>, fillcolor="#77bced"] ;
267 -> 269 ;
270 [label=<NAME_CONTRACT_TYPE &le; 0.5<br/>gini = 0.476<br/>samples = 1090<br/>value = [1268, 1972]>, fillcolor="#b8dcf6"] ;
262 -> 270 ;
271 [label=<EXT_SOURCE_2 &le; 0.217<br/>gini = 0.474<br/>samples = 1067<br/>value = [1231.0, 1964.0]>, fillcolor="#b5daf5"] ;
270 -> 271 ;
272 [label=<gini = 0.352<br/>samples = 86<br/>value = [72, 244]>, fillcolor="#73baed"] ;
271 -> 272 ;
273 [label=<gini = 0.481<br/>samples = 981<br/>value = [1159, 1720]>, fillcolor="#bedff7"] ;
271 -> 273 ;
274 [label=<DAYS_ID_PUBLISH &le; 0.234<br/>gini = 0.292<br/>samples = 23<br/>value = [37, 8]>, fillcolor="#eb9c64"] ;
270 -> 274 ;
275 [label=<gini = 0.0<br/>samples = 1<br/>value = [0, 4]>, fillcolor="#399de5"] ;
274 -> 275 ;
276 [label=<gini = 0.176<br/>samples = 22<br/>value = [37, 4]>, fillcolor="#e88f4e"] ;
274 -> 276 ;
277 [label=<REG_REGION_NOT_WORK_REGION &le; 0.5<br/>gini = 0.461<br/>samples = 1479<br/>value = [1645.0, 2912.0]>, fillcolor="#a9d4f4"] ;
261 -> 277 ;
278 [label=<EXT_SOURCE_2^2 &le; 0.096<br/>gini = 0.458<br/>samples = 1396<br/>value = [1546, 2816]>, fillcolor="#a6d3f3"] ;
277 -> 278 ;
279 [label=<AMT_REQ_CREDIT_BUREAU_YEAR &le; 2.5<br/>gini = 0.409<br/>samples = 383<br/>value = [383, 952]>, fillcolor="#89c4ef"] ;
278 -> 279 ;
280 [label=<gini = 0.451<br/>samples = 299<br/>value = [327, 624]>, fillcolor="#a1d0f3"] ;
279 -> 280 ;
281 [label=<gini = 0.249<br/>samples = 84<br/>value = [56, 328]>, fillcolor="#5baee9"] ;
279 -> 281 ;
282 [label=<AMT_GOODS_PRICE &le; 0.159<br/>gini = 0.473<br/>samples = 1013<br/>value = [1163, 1864]>, fillcolor="#b5daf5"] ;
278 -> 282 ;
283 [label=<gini = 0.456<br/>samples = 719<br/>value = [800, 1476]>, fillcolor="#a4d2f3"] ;
282 -> 283 ;
284 [label=<gini = 0.499<br/>samples = 294<br/>value = [363.0, 388.0]>, fillcolor="#f2f9fd"] ;
282 -> 284 ;
285 [label=<AMT_INCOME_TOTAL AMT_ANNUITY &le; 0.002<br/>gini = 0.5<br/>samples = 83<br/>value = [99, 96]>, fillcolor="#fefbf9"] ;
277 -> 285 ;
286 [label=<DAYS_LAST_PHONE_CHANGE &le; 0.872<br/>gini = 0.462<br/>samples = 46<br/>value = [43, 76]>, fillcolor="#a9d4f4"] ;
285 -> 286 ;
287 [label=<gini = 0.245<br/>samples = 17<br/>value = [24, 4]>, fillcolor="#e9965a"] ;
286 -> 287 ;
288 [label=<gini = 0.33<br/>samples = 29<br/>value = [19, 72]>, fillcolor="#6db7ec"] ;
286 -> 288 ;
289 [label=<AMT_INCOME_TOTAL AMT_ANNUITY &le; 0.005<br/>gini = 0.388<br/>samples = 37<br/>value = [56, 20]>, fillcolor="#eeae80"] ;
285 -> 289 ;
290 [label=<gini = 0.241<br/>samples = 31<br/>value = [49, 8]>, fillcolor="#e99659"] ;
289 -> 290 ;
291 [label=<gini = 0.465<br/>samples = 6<br/>value = [7, 12]>, fillcolor="#acd6f4"] ;
289 -> 291 ;
292 [label=<AMT_GOODS_PRICE &le; 0.032<br/>gini = 0.488<br/>samples = 5109<br/>value = [6847.0, 5032.0]>, fillcolor="#f8decb"] ;
184 -> 292 ;
293 [label=<AMT_CREDIT^2 &le; 0.002<br/>gini = 0.397<br/>samples = 655<br/>value = [970.0, 364.0]>, fillcolor="#efb083"] ;
292 -> 293 ;
294 [label=<AMT_CREDIT AMT_GOODS_PRICE &le; 0.001<br/>gini = 0.383<br/>samples = 642<br/>value = [954.0, 332.0]>, fillcolor="#eead7e"] ;
293 -> 294 ;
295 [label=<EXT_SOURCE_3 &le; 0.65<br/>gini = 0.442<br/>samples = 337<br/>value = [480.0, 236.0]>, fillcolor="#f2bf9a"] ;
294 -> 295 ;
296 [label=<DAYS_REGISTRATION &le; 0.963<br/>gini = 0.477<br/>samples = 45<br/>value = [49, 76]>, fillcolor="#b9dcf6"] ;
295 -> 296 ;
297 [label=<AMT_CREDIT^2 &le; 0.001<br/>gini = 0.436<br/>samples = 38<br/>value = [36, 76]>, fillcolor="#97cbf1"] ;
296 -> 297 ;
298 [label=<gini = 0.417<br/>samples = 34<br/>value = [32, 76]>, fillcolor="#8cc6f0"] ;
297 -> 298 ;
299 [label=<gini = 0.0<br/>samples = 4<br/>value = [4, 0]>, fillcolor="#e58139"] ;
297 -> 299 ;
300 [label=<gini = 0.0<br/>samples = 7<br/>value = [13, 0]>, fillcolor="#e58139"] ;
296 -> 300 ;
301 [label=<ORGANIZATION_TYPE &le; 4.5<br/>gini = 0.395<br/>samples = 292<br/>value = [431, 160]>, fillcolor="#efb083"] ;
295 -> 301 ;
302 [label=<CODE_GENDER &le; 0.5<br/>gini = 0.496<br/>samples = 84<br/>value = [110.0, 92.0]>, fillcolor="#fbeadf"] ;
301 -> 302 ;
303 [label=<gini = 0.469<br/>samples = 32<br/>value = [36, 60]>, fillcolor="#b0d8f5"] ;
302 -> 303 ;
304 [label=<gini = 0.422<br/>samples = 52<br/>value = [74, 32]>, fillcolor="#f0b78f"] ;
302 -> 304 ;
305 [label=<AMT_INCOME_TOTAL EXT_SOURCE_2 &le; 0.0<br/>gini = 0.288<br/>samples = 208<br/>value = [321, 68]>, fillcolor="#eb9c63"] ;
301 -> 305 ;
306 [label=<gini = 0.0<br/>samples = 1<br/>value = [0, 8]>, fillcolor="#399de5"] ;
305 -> 306 ;
307 [label=<gini = 0.265<br/>samples = 207<br/>value = [321, 60]>, fillcolor="#ea995e"] ;
305 -> 307 ;
308 [label=<FLAG_PHONE &le; 0.5<br/>gini = 0.28<br/>samples = 305<br/>value = [474, 96]>, fillcolor="#ea9b61"] ;
294 -> 308 ;
309 [label=<OBS_30_CNT_SOCIAL_CIRCLE &le; 4.5<br/>gini = 0.208<br/>samples = 227<br/>value = [359, 48]>, fillcolor="#e89253"] ;
308 -> 309 ;
310 [label=<ORGANIZATION_TYPE &le; 4.5<br/>gini = 0.142<br/>samples = 208<br/>value = [336, 28]>, fillcolor="#e78c49"] ;
309 -> 310 ;
311 [label=<gini = 0.285<br/>samples = 55<br/>value = [77, 16]>, fillcolor="#ea9b62"] ;
310 -> 311 ;
312 [label=<gini = 0.085<br/>samples = 153<br/>value = [259, 12]>, fillcolor="#e68742"] ;
310 -> 312 ;
313 [label=<DAYS_BIRTH &le; 0.646<br/>gini = 0.498<br/>samples = 19<br/>value = [23.0, 20.0]>, fillcolor="#fcefe5"] ;
309 -> 313 ;
314 [label=<gini = 0.0<br/>samples = 12<br/>value = [17, 0]>, fillcolor="#e58139"] ;
313 -> 314 ;
315 [label=<gini = 0.355<br/>samples = 7<br/>value = [6, 20]>, fillcolor="#74baed"] ;
313 -> 315 ;
316 [label=<AMT_GOODS_PRICE EXT_SOURCE_2 &le; 0.016<br/>gini = 0.416<br/>samples = 78<br/>value = [115, 48]>, fillcolor="#f0b68c"] ;
308 -> 316 ;
317 [label=<AMT_INCOME_TOTAL AMT_GOODS_PRICE &le; 0.0<br/>gini = 0.488<br/>samples = 43<br/>value = [60.0, 44.0]>, fillcolor="#f8ddca"] ;
316 -> 317 ;
318 [label=<gini = 0.458<br/>samples = 39<br/>value = [58.0, 32.0]>, fillcolor="#f3c7a6"] ;
317 -> 318 ;
319 [label=<gini = 0.245<br/>samples = 4<br/>value = [2, 12]>, fillcolor="#5aade9"] ;
317 -> 319 ;
320 [label=<DAYS_LAST_PHONE_CHANGE &le; 0.965<br/>gini = 0.126<br/>samples = 35<br/>value = [55, 4]>, fillcolor="#e78a47"] ;
316 -> 320 ;
321 [label=<gini = 0.0<br/>samples = 28<br/>value = [47, 0]>, fillcolor="#e58139"] ;
320 -> 321 ;
322 [label=<gini = 0.444<br/>samples = 7<br/>value = [8, 4]>, fillcolor="#f2c09c"] ;
320 -> 322 ;
323 [label=<AMT_CREDIT AMT_ANNUITY &le; 0.002<br/>gini = 0.444<br/>samples = 13<br/>value = [16, 32]>, fillcolor="#9ccef2"] ;
293 -> 323 ;
324 [label=<gini = 0.0<br/>samples = 1<br/>value = [0, 12]>, fillcolor="#399de5"] ;
323 -> 324 ;
325 [label=<AMT_CREDIT EXT_SOURCE_2 &le; 0.019<br/>gini = 0.494<br/>samples = 12<br/>value = [16, 20]>, fillcolor="#d7ebfa"] ;
323 -> 325 ;
326 [label=<AMT_ANNUITY^2 &le; 0.002<br/>gini = 0.32<br/>samples = 6<br/>value = [5, 20]>, fillcolor="#6ab6ec"] ;
325 -> 326 ;
327 [label=<gini = 0.0<br/>samples = 2<br/>value = [3, 0]>, fillcolor="#e58139"] ;
326 -> 327 ;
328 [label=<DAYS_ID_PUBLISH &le; 0.859<br/>gini = 0.165<br/>samples = 4<br/>value = [2, 20]>, fillcolor="#4da7e8"] ;
326 -> 328 ;
329 [label=<gini = 0.0<br/>samples = 3<br/>value = [0, 20]>, fillcolor="#399de5"] ;
328 -> 329 ;
330 [label=<gini = 0.0<br/>samples = 1<br/>value = [2, 0]>, fillcolor="#e58139"] ;
328 -> 330 ;
331 [label=<gini = 0.0<br/>samples = 6<br/>value = [11, 0]>, fillcolor="#e58139"] ;
325 -> 331 ;
332 [label=<AMT_ANNUITY &le; 0.106<br/>gini = 0.493<br/>samples = 4454<br/>value = [5877, 4668]>, fillcolor="#fae5d6"] ;
292 -> 332 ;
333 [label=<DAYS_BIRTH &le; 0.777<br/>gini = 0.487<br/>samples = 3342<br/>value = [4457, 3212]>, fillcolor="#f8dcc8"] ;
332 -> 333 ;
334 [label=<ORGANIZATION_TYPE &le; 0.5<br/>gini = 0.478<br/>samples = 2855<br/>value = [3852, 2516]>, fillcolor="#f6d3ba"] ;
333 -> 334 ;
335 [label=<CODE_GENDER &le; 0.5<br/>gini = 0.5<br/>samples = 459<br/>value = [574, 592]>, fillcolor="#f9fcfe"] ;
334 -> 335 ;
336 [label=<EXT_SOURCE_2^2 &le; 0.277<br/>gini = 0.48<br/>samples = 185<br/>value = [208, 312]>, fillcolor="#bddef6"] ;
335 -> 336 ;
337 [label=<gini = 0.466<br/>samples = 167<br/>value = [181, 308]>, fillcolor="#add7f4"] ;
336 -> 337 ;
338 [label=<gini = 0.225<br/>samples = 18<br/>value = [27, 4]>, fillcolor="#e99456"] ;
336 -> 338 ;
339 [label=<LIVE_CITY_NOT_WORK_CITY &le; 0.5<br/>gini = 0.491<br/>samples = 274<br/>value = [366, 280]>, fillcolor="#f9e1d0"] ;
335 -> 339 ;
340 [label=<gini = 0.498<br/>samples = 210<br/>value = [282, 248]>, fillcolor="#fcf0e7"] ;
339 -> 340 ;
341 [label=<gini = 0.4<br/>samples = 64<br/>value = [84, 32]>, fillcolor="#efb184"] ;
339 -> 341 ;
342 [label=<CODE_GENDER &le; 0.5<br/>gini = 0.466<br/>samples = 2396<br/>value = [3278, 1924]>, fillcolor="#f4cbad"] ;
334 -> 342 ;
343 [label=<AMT_GOODS_PRICE EXT_SOURCE_2 &le; 0.034<br/>gini = 0.487<br/>samples = 680<br/>value = [893.0, 644.0]>, fillcolor="#f8dcc8"] ;
342 -> 343 ;
344 [label=<gini = 0.5<br/>samples = 346<br/>value = [424, 448]>, fillcolor="#f4fafe"] ;
343 -> 344 ;
345 [label=<gini = 0.416<br/>samples = 334<br/>value = [469.0, 196.0]>, fillcolor="#f0b68c"] ;
343 -> 345 ;
346 [label=<AMT_CREDIT^2 &le; 0.03<br/>gini = 0.455<br/>samples = 1716<br/>value = [2385, 1280]>, fillcolor="#f3c5a3"] ;
342 -> 346 ;
347 [label=<gini = 0.441<br/>samples = 1518<br/>value = [2129, 1040]>, fillcolor="#f2bf9a"] ;
346 -> 347 ;
348 [label=<gini = 0.499<br/>samples = 198<br/>value = [256, 240]>, fillcolor="#fdf7f3"] ;
346 -> 348 ;
349 [label=<AMT_INCOME_TOTAL &le; 0.001<br/>gini = 0.498<br/>samples = 487<br/>value = [605, 696]>, fillcolor="#e5f2fc"] ;
333 -> 349 ;
350 [label=<AMT_INCOME_TOTAL &le; 0.001<br/>gini = 0.485<br/>samples = 383<br/>value = [447.0, 636.0]>, fillcolor="#c4e2f7"] ;
349 -> 350 ;
351 [label=<NAME_HOUSING_TYPE &le; 2.5<br/>gini = 0.5<br/>samples = 228<br/>value = [287, 288]>, fillcolor="#feffff"] ;
350 -> 351 ;
352 [label=<gini = 0.499<br/>samples = 218<br/>value = [269, 288]>, fillcolor="#f2f9fd"] ;
351 -> 352 ;
353 [label=<gini = 0.0<br/>samples = 10<br/>value = [18, 0]>, fillcolor="#e58139"] ;
351 -> 353 ;
354 [label=<EXT_SOURCE_3 &le; 0.644<br/>gini = 0.432<br/>samples = 155<br/>value = [160, 348]>, fillcolor="#94caf1"] ;
350 -> 354 ;
355 [label=<gini = 0.5<br/>samples = 33<br/>value = [47, 48]>, fillcolor="#fbfdfe"] ;
354 -> 355 ;
356 [label=<gini = 0.397<br/>samples = 122<br/>value = [113.0, 300.0]>, fillcolor="#84c2ef"] ;
354 -> 356 ;
357 [label=<CNT_CHILDREN &le; 0.5<br/>gini = 0.399<br/>samples = 104<br/>value = [158, 60]>, fillcolor="#efb184"] ;
349 -> 357 ;
358 [label=<DAYS_BIRTH &le; 0.827<br/>gini = 0.464<br/>samples = 66<br/>value = [97.0, 56.0]>, fillcolor="#f4caab"] ;
357 -> 358 ;
359 [label=<gini = 0.241<br/>samples = 28<br/>value = [49, 8]>, fillcolor="#e99659"] ;
358 -> 359 ;
360 [label=<gini = 0.5<br/>samples = 38<br/>value = [48, 48]>, fillcolor="#ffffff"] ;
358 -> 360 ;
361 [label=<AMT_CREDIT EXT_SOURCE_2 &le; 0.019<br/>gini = 0.116<br/>samples = 38<br/>value = [61, 4]>, fillcolor="#e78946"] ;
357 -> 361 ;
362 [label=<gini = 0.49<br/>samples = 3<br/>value = [3, 4]>, fillcolor="#cee6f8"] ;
361 -> 362 ;
363 [label=<gini = 0.0<br/>samples = 35<br/>value = [58, 0]>, fillcolor="#e58139"] ;
361 -> 363 ;
364 [label=<CNT_FAM_MEMBERS &le; 1.5<br/>gini = 0.5<br/>samples = 1112<br/>value = [1420.0, 1456.0]>, fillcolor="#fafdfe"] ;
332 -> 364 ;
365 [label=<AMT_ANNUITY EXT_SOURCE_2 &le; 0.053<br/>gini = 0.484<br/>samples = 202<br/>value = [244, 352]>, fillcolor="#c2e1f7"] ;
364 -> 365 ;
366 [label=<OBS_60_CNT_SOCIAL_CIRCLE &le; 0.5<br/>gini = 0.332<br/>samples = 45<br/>value = [34, 128]>, fillcolor="#6eb7ec"] ;
365 -> 366 ;
367 [label=<REGION_RATING_CLIENT &le; 1.5<br/>gini = 0.254<br/>samples = 33<br/>value = [21, 120]>, fillcolor="#5caeea"] ;
366 -> 367 ;
368 [label=<gini = 0.0<br/>samples = 2<br/>value = [2, 0]>, fillcolor="#e58139"] ;
367 -> 368 ;
369 [label=<gini = 0.236<br/>samples = 31<br/>value = [19, 120]>, fillcolor="#58ade9"] ;
367 -> 369 ;
370 [label=<DAYS_ID_PUBLISH &le; 0.599<br/>gini = 0.472<br/>samples = 12<br/>value = [13, 8]>, fillcolor="#f5cfb3"] ;
366 -> 370 ;
371 [label=<gini = 0.0<br/>samples = 6<br/>value = [7, 0]>, fillcolor="#e58139"] ;
370 -> 371 ;
372 [label=<gini = 0.49<br/>samples = 6<br/>value = [6, 8]>, fillcolor="#cee6f8"] ;
370 -> 372 ;
373 [label=<REGION_POPULATION_RELATIVE &le; 0.158<br/>gini = 0.499<br/>samples = 157<br/>value = [210, 224]>, fillcolor="#f3f9fd"] ;
365 -> 373 ;
374 [label=<AMT_GOODS_PRICE &le; 0.09<br/>gini = 0.326<br/>samples = 51<br/>value = [93, 24]>, fillcolor="#eca26c"] ;
373 -> 374 ;
375 [label=<gini = 0.397<br/>samples = 4<br/>value = [3, 8]>, fillcolor="#83c2ef"] ;
374 -> 375 ;
376 [label=<gini = 0.256<br/>samples = 47<br/>value = [90, 16]>, fillcolor="#ea975c"] ;
374 -> 376 ;
377 [label=<AMT_CREDIT AMT_ANNUITY &le; 0.013<br/>gini = 0.466<br/>samples = 106<br/>value = [117, 200]>, fillcolor="#add6f4"] ;
373 -> 377 ;
378 [label=<gini = 0.0<br/>samples = 8<br/>value = [13, 0]>, fillcolor="#e58139"] ;
377 -> 378 ;
379 [label=<gini = 0.45<br/>samples = 98<br/>value = [104, 200]>, fillcolor="#a0d0f3"] ;
377 -> 379 ;
380 [label=<REGION_RATING_CLIENT &le; 2.5<br/>gini = 0.5<br/>samples = 910<br/>value = [1176, 1104]>, fillcolor="#fdf7f3"] ;
364 -> 380 ;
381 [label=<CODE_GENDER &le; 0.5<br/>gini = 0.487<br/>samples = 664<br/>value = [894.0, 648.0]>, fillcolor="#f8dcc9"] ;
380 -> 381 ;
382 [label=<AMT_GOODS_PRICE^2 &le; 0.023<br/>gini = 0.5<br/>samples = 290<br/>value = [361.0, 384.0]>, fillcolor="#f3f9fd"] ;
381 -> 382 ;
383 [label=<gini = 0.485<br/>samples = 169<br/>value = [226, 160]>, fillcolor="#f7dac5"] ;
382 -> 383 ;
384 [label=<gini = 0.469<br/>samples = 121<br/>value = [135, 224]>, fillcolor="#b0d8f5"] ;
382 -> 384 ;
385 [label=<AMT_CREDIT AMT_ANNUITY &le; 0.034<br/>gini = 0.443<br/>samples = 374<br/>value = [533, 264]>, fillcolor="#f2bf9b"] ;
381 -> 385 ;
386 [label=<gini = 0.401<br/>samples = 328<br/>value = [480, 184]>, fillcolor="#efb185"] ;
385 -> 386 ;
387 [label=<gini = 0.479<br/>samples = 46<br/>value = [53, 80]>, fillcolor="#bcdef6"] ;
385 -> 387 ;
388 [label=<REGION_POPULATION_RELATIVE &le; 0.087<br/>gini = 0.472<br/>samples = 246<br/>value = [282, 456]>, fillcolor="#b3daf5"] ;
380 -> 388 ;
389 [label=<AMT_INCOME_TOTAL AMT_GOODS_PRICE &le; 0.001<br/>gini = 0.31<br/>samples = 50<br/>value = [39, 164]>, fillcolor="#68b4eb"] ;
388 -> 389 ;
390 [label=<gini = 0.0<br/>samples = 2<br/>value = [3, 0]>, fillcolor="#e58139"] ;
389 -> 390 ;
391 [label=<gini = 0.295<br/>samples = 48<br/>value = [36, 164]>, fillcolor="#64b3eb"] ;
389 -> 391 ;
392 [label=<AMT_CREDIT AMT_ANNUITY &le; 0.039<br/>gini = 0.496<br/>samples = 196<br/>value = [243, 292]>, fillcolor="#deeffb"] ;
388 -> 392 ;
393 [label=<gini = 0.5<br/>samples = 188<br/>value = [239.0, 252.0]>, fillcolor="#f5fafe"] ;
392 -> 393 ;
394 [label=<gini = 0.165<br/>samples = 8<br/>value = [4, 40]>, fillcolor="#4da7e8"] ;
392 -> 394 ;
395 [label=<AMT_ANNUITY AMT_GOODS_PRICE &le; 0.021<br/>gini = 0.5<br/>samples = 2828<br/>value = [3501.0, 3720.0]>, fillcolor="#f3f9fd"] ;
183 -> 395 ;
396 [label=<gini = 0.0<br/>samples = 25<br/>value = [44, 0]>, fillcolor="#e58139"] ;
395 -> 396 ;
397 [label=<EXT_SOURCE_2 &le; 0.478<br/>gini = 0.499<br/>samples = 2803<br/>value = [3457, 3720]>, fillcolor="#f1f8fd"] ;
395 -> 397 ;
398 [label=<DAYS_EMPLOYED &le; 0.716<br/>gini = 0.494<br/>samples = 1960<br/>value = [2302, 2852]>, fillcolor="#d9ecfa"] ;
397 -> 398 ;
399 [label=<AMT_GOODS_PRICE EXT_SOURCE_2 &le; 0.096<br/>gini = 0.458<br/>samples = 202<br/>value = [298, 164]>, fillcolor="#f3c6a6"] ;
398 -> 399 ;
400 [label=<AMT_ANNUITY EXT_SOURCE_2 &le; 0.076<br/>gini = 0.499<br/>samples = 82<br/>value = [108.0, 116.0]>, fillcolor="#f1f8fd"] ;
399 -> 400 ;
401 [label=<HOUR_APPR_PROCESS_START &le; 12.5<br/>gini = 0.496<br/>samples = 77<br/>value = [105.0, 88.0]>, fillcolor="#fbebdf"] ;
400 -> 401 ;
402 [label=<AMT_CREDIT EXT_SOURCE_2 &le; 0.075<br/>gini = 0.486<br/>samples = 49<br/>value = [60, 84]>, fillcolor="#c6e3f8"] ;
401 -> 402 ;
403 [label=<gini = 0.32<br/>samples = 18<br/>value = [15, 60]>, fillcolor="#6ab6ec"] ;
402 -> 403 ;
404 [label=<gini = 0.454<br/>samples = 31<br/>value = [45, 24]>, fillcolor="#f3c4a3"] ;
402 -> 404 ;
405 [label=<AMT_CREDIT &le; 1480632.75<br/>gini = 0.15<br/>samples = 28<br/>value = [45.0, 4.0]>, fillcolor="#e78c4b"] ;
401 -> 405 ;
406 [label=<gini = 0.0<br/>samples = 27<br/>value = [45, 0]>, fillcolor="#e58139"] ;
405 -> 406 ;
407 [label=<gini = 0.0<br/>samples = 1<br/>value = [0, 4]>, fillcolor="#399de5"] ;
405 -> 407 ;
408 [label=<AMT_CREDIT AMT_ANNUITY &le; 0.075<br/>gini = 0.175<br/>samples = 5<br/>value = [3, 28]>, fillcolor="#4ea8e8"] ;
400 -> 408 ;
409 [label=<gini = 0.0<br/>samples = 3<br/>value = [0, 28]>, fillcolor="#399de5"] ;
408 -> 409 ;
410 [label=<gini = 0.0<br/>samples = 2<br/>value = [3, 0]>, fillcolor="#e58139"] ;
408 -> 410 ;
411 [label=<DAYS_BIRTH &le; 0.563<br/>gini = 0.322<br/>samples = 120<br/>value = [190, 48]>, fillcolor="#eca16b"] ;
399 -> 411 ;
412 [label=<AMT_INCOME_TOTAL AMT_CREDIT &le; 0.008<br/>gini = 0.232<br/>samples = 94<br/>value = [155, 24]>, fillcolor="#e99558"] ;
411 -> 412 ;
413 [label=<EXT_SOURCE_2 &le; 0.47<br/>gini = 0.179<br/>samples = 87<br/>value = [145.0, 16.0]>, fillcolor="#e88f4f"] ;
412 -> 413 ;
414 [label=<gini = 0.102<br/>samples = 81<br/>value = [140, 8]>, fillcolor="#e68844"] ;
413 -> 414 ;
415 [label=<gini = 0.473<br/>samples = 6<br/>value = [5, 8]>, fillcolor="#b5daf5"] ;
413 -> 415 ;
416 [label=<ORGANIZATION_TYPE &le; 5.5<br/>gini = 0.494<br/>samples = 7<br/>value = [10, 8]>, fillcolor="#fae6d7"] ;
412 -> 416 ;
417 [label=<gini = 0.0<br/>samples = 3<br/>value = [8, 0]>, fillcolor="#e58139"] ;
416 -> 417 ;
418 [label=<gini = 0.32<br/>samples = 4<br/>value = [2, 8]>, fillcolor="#6ab6ec"] ;
416 -> 418 ;
419 [label=<DAYS_ID_PUBLISH &le; 0.499<br/>gini = 0.483<br/>samples = 26<br/>value = [35, 24]>, fillcolor="#f7d7c1"] ;
411 -> 419 ;
420 [label=<AMT_ANNUITY EXT_SOURCE_2 &le; 0.075<br/>gini = 0.493<br/>samples = 17<br/>value = [19, 24]>, fillcolor="#d6ebfa"] ;
419 -> 420 ;
421 [label=<gini = 0.332<br/>samples = 10<br/>value = [15, 4]>, fillcolor="#eca36e"] ;
420 -> 421 ;
422 [label=<gini = 0.278<br/>samples = 7<br/>value = [4, 20]>, fillcolor="#61b1ea"] ;
420 -> 422 ;
423 [label=<gini = 0.0<br/>samples = 9<br/>value = [16, 0]>, fillcolor="#e58139"] ;
419 -> 423 ;
424 [label=<NAME_INCOME_TYPE &le; 0.5<br/>gini = 0.489<br/>samples = 1758<br/>value = [2004, 2688]>, fillcolor="#cde6f8"] ;
398 -> 424 ;
425 [label=<AMT_ANNUITY^2 &le; 0.01<br/>gini = 0.476<br/>samples = 929<br/>value = [1021.0, 1588.0]>, fillcolor="#b8dcf6"] ;
424 -> 425 ;
426 [label=<AMT_REQ_CREDIT_BUREAU_YEAR &le; 4.5<br/>gini = 0.38<br/>samples = 24<br/>value = [35.0, 12.0]>, fillcolor="#eeac7d"] ;
425 -> 426 ;
427 [label=<AMT_CREDIT &le; 870750.0<br/>gini = 0.184<br/>samples = 23<br/>value = [35, 4]>, fillcolor="#e88f50"] ;
426 -> 427 ;
428 [label=<gini = 0.0<br/>samples = 1<br/>value = [0, 4]>, fillcolor="#399de5"] ;
427 -> 428 ;
429 [label=<gini = 0.0<br/>samples = 22<br/>value = [35, 0]>, fillcolor="#e58139"] ;
427 -> 429 ;
430 [label=<gini = 0.0<br/>samples = 1<br/>value = [0, 8]>, fillcolor="#399de5"] ;
426 -> 430 ;
431 [label=<AMT_CREDIT EXT_SOURCE_2 &le; 0.094<br/>gini = 0.473<br/>samples = 905<br/>value = [986, 1576]>, fillcolor="#b5daf5"] ;
425 -> 431 ;
432 [label=<ORGANIZATION_TYPE &le; 0.5<br/>gini = 0.434<br/>samples = 325<br/>value = [314, 672]>, fillcolor="#96cbf1"] ;
431 -> 432 ;
433 [label=<gini = 0.332<br/>samples = 101<br/>value = [84, 316]>, fillcolor="#6eb7ec"] ;
432 -> 433 ;
434 [label=<gini = 0.477<br/>samples = 224<br/>value = [230, 356]>, fillcolor="#b9dcf6"] ;
432 -> 434 ;
435 [label=<AMT_INCOME_TOTAL &le; 0.001<br/>gini = 0.489<br/>samples = 580<br/>value = [672.0, 904.0]>, fillcolor="#cce6f8"] ;
431 -> 435 ;
436 [label=<gini = 0.44<br/>samples = 47<br/>value = [66.0, 32.0]>, fillcolor="#f2be99"] ;
435 -> 436 ;
437 [label=<gini = 0.484<br/>samples = 533<br/>value = [606.0, 872.0]>, fillcolor="#c3e1f7"] ;
435 -> 437 ;
438 [label=<AMT_REQ_CREDIT_BUREAU_QRT &le; 0.5<br/>gini = 0.498<br/>samples = 829<br/>value = [983, 1100]>, fillcolor="#eaf5fc"] ;
424 -> 438 ;
439 [label=<CODE_GENDER &le; 0.5<br/>gini = 0.495<br/>samples = 678<br/>value = [786.0, 964.0]>, fillcolor="#daedfa"] ;
438 -> 439 ;
440 [label=<AMT_GOODS_PRICE^2 &le; 0.046<br/>gini = 0.482<br/>samples = 203<br/>value = [230, 336]>, fillcolor="#c1e0f7"] ;
439 -> 440 ;
441 [label=<gini = 0.133<br/>samples = 12<br/>value = [4, 52]>, fillcolor="#48a5e7"] ;
440 -> 441 ;
442 [label=<gini = 0.494<br/>samples = 191<br/>value = [226, 284]>, fillcolor="#d7ebfa"] ;
440 -> 442 ;
443 [label=<AMT_ANNUITY^2 &le; 0.048<br/>gini = 0.498<br/>samples = 475<br/>value = [556, 628]>, fillcolor="#e8f4fc"] ;
439 -> 443 ;
444 [label=<gini = 0.495<br/>samples = 425<br/>value = [490, 596]>, fillcolor="#dceefa"] ;
443 -> 444 ;
445 [label=<gini = 0.44<br/>samples = 50<br/>value = [66.0, 32.0]>, fillcolor="#f2be99"] ;
443 -> 445 ;
446 [label=<AMT_ANNUITY EXT_SOURCE_2 &le; 0.06<br/>gini = 0.483<br/>samples = 151<br/>value = [197, 136]>, fillcolor="#f7d8c2"] ;
438 -> 446 ;
447 [label=<AMT_REQ_CREDIT_BUREAU_WEEK &le; 0.5<br/>gini = 0.497<br/>samples = 64<br/>value = [76, 88]>, fillcolor="#e4f2fb"] ;
446 -> 447 ;
448 [label=<gini = 0.496<br/>samples = 60<br/>value = [76, 64]>, fillcolor="#fbebe0"] ;
447 -> 448 ;
449 [label=<gini = 0.0<br/>samples = 4<br/>value = [0, 24]>, fillcolor="#399de5"] ;
447 -> 449 ;
450 [label=<ORGANIZATION_TYPE &le; 0.5<br/>gini = 0.407<br/>samples = 87<br/>value = [121, 48]>, fillcolor="#efb388"] ;
446 -> 450 ;
451 [label=<gini = 0.493<br/>samples = 19<br/>value = [22.0, 28.0]>, fillcolor="#d5eaf9"] ;
450 -> 451 ;
452 [label=<gini = 0.28<br/>samples = 68<br/>value = [99, 20]>, fillcolor="#ea9a61"] ;
450 -> 452 ;
453 [label=<AMT_ANNUITY &le; 0.159<br/>gini = 0.49<br/>samples = 843<br/>value = [1155, 868]>, fillcolor="#f9e0ce"] ;
397 -> 453 ;
454 [label=<EXT_SOURCE_3 &le; 0.443<br/>gini = 0.5<br/>samples = 451<br/>value = [595, 588]>, fillcolor="#fffefd"] ;
453 -> 454 ;
455 [label=<ORGANIZATION_TYPE &le; 34.5<br/>gini = 0.437<br/>samples = 117<br/>value = [133, 280]>, fillcolor="#97ccf1"] ;
454 -> 455 ;
456 [label=<AMT_INCOME_TOTAL &le; 0.001<br/>gini = 0.416<br/>samples = 110<br/>value = [117, 280]>, fillcolor="#8cc6f0"] ;
455 -> 456 ;
457 [label=<gini = 0.0<br/>samples = 3<br/>value = [6, 0]>, fillcolor="#e58139"] ;
456 -> 457 ;
458 [label=<AMT_GOODS_PRICE^2 &le; 0.047<br/>gini = 0.407<br/>samples = 107<br/>value = [111, 280]>, fillcolor="#87c4ef"] ;
456 -> 458 ;
459 [label=<gini = 0.0<br/>samples = 8<br/>value = [13, 0]>, fillcolor="#e58139"] ;
458 -> 459 ;
460 [label=<gini = 0.384<br/>samples = 99<br/>value = [98, 280]>, fillcolor="#7ebfee"] ;
458 -> 460 ;
461 [label=<gini = 0.0<br/>samples = 7<br/>value = [16, 0]>, fillcolor="#e58139"] ;
455 -> 461 ;
462 [label=<AMT_ANNUITY EXT_SOURCE_2 &le; 0.076<br/>gini = 0.48<br/>samples = 334<br/>value = [462, 308]>, fillcolor="#f6d5bd"] ;
454 -> 462 ;
463 [label=<AMT_CREDIT &le; 1021432.5<br/>gini = 0.338<br/>samples = 86<br/>value = [131, 36]>, fillcolor="#eca46f"] ;
462 -> 463 ;
464 [label=<ORGANIZATION_TYPE &le; 0.5<br/>gini = 0.432<br/>samples = 55<br/>value = [78, 36]>, fillcolor="#f1bb94"] ;
463 -> 464 ;
465 [label=<gini = 0.465<br/>samples = 14<br/>value = [14, 24]>, fillcolor="#acd6f4"] ;
464 -> 465 ;
466 [label=<gini = 0.266<br/>samples = 41<br/>value = [64, 12]>, fillcolor="#ea995e"] ;
464 -> 466 ;
467 [label=<gini = 0.0<br/>samples = 31<br/>value = [53, 0]>, fillcolor="#e58139"] ;
463 -> 467 ;
468 [label=<OBS_60_CNT_SOCIAL_CIRCLE &le; 2.5<br/>gini = 0.495<br/>samples = 248<br/>value = [331.0, 272.0]>, fillcolor="#fae9dc"] ;
462 -> 468 ;
469 [label=<DAYS_ID_PUBLISH &le; 0.441<br/>gini = 0.474<br/>samples = 195<br/>value = [274, 172]>, fillcolor="#f5d0b5"] ;
468 -> 469 ;
470 [label=<gini = 0.498<br/>samples = 72<br/>value = [87, 100]>, fillcolor="#e5f2fc"] ;
469 -> 470 ;
471 [label=<gini = 0.401<br/>samples = 123<br/>value = [187, 72]>, fillcolor="#efb285"] ;
469 -> 471 ;
472 [label=<AMT_GOODS_PRICE^2 &le; 0.095<br/>gini = 0.462<br/>samples = 53<br/>value = [57.0, 100.0]>, fillcolor="#aad5f4"] ;
468 -> 472 ;
473 [label=<gini = 0.438<br/>samples = 48<br/>value = [48, 100]>, fillcolor="#98ccf1"] ;
472 -> 473 ;
474 [label=<gini = 0.0<br/>samples = 5<br/>value = [9, 0]>, fillcolor="#e58139"] ;
472 -> 474 ;
475 [label=<DAYS_EMPLOYED &le; 0.816<br/>gini = 0.444<br/>samples = 392<br/>value = [560, 280]>, fillcolor="#f2c09c"] ;
453 -> 475 ;
476 [label=<AMT_CREDIT AMT_ANNUITY &le; 0.038<br/>gini = 0.111<br/>samples = 82<br/>value = [127, 8]>, fillcolor="#e78945"] ;
475 -> 476 ;
477 [label=<AMT_CREDIT EXT_SOURCE_2 &le; 0.133<br/>gini = 0.5<br/>samples = 3<br/>value = [4, 4]>, fillcolor="#ffffff"] ;
476 -> 477 ;
478 [label=<AMT_ANNUITY^2 &le; 0.03<br/>gini = 0.32<br/>samples = 2<br/>value = [1, 4]>, fillcolor="#6ab6ec"] ;
477 -> 478 ;
479 [label=<gini = 0.0<br/>samples = 1<br/>value = [1, 0]>, fillcolor="#e58139"] ;
478 -> 479 ;
480 [label=<gini = 0.0<br/>samples = 1<br/>value = [0, 4]>, fillcolor="#399de5"] ;
478 -> 480 ;
481 [label=<gini = 0.0<br/>samples = 1<br/>value = [3, 0]>, fillcolor="#e58139"] ;
477 -> 481 ;
482 [label=<AMT_INCOME_TOTAL EXT_SOURCE_2 &le; 0.006<br/>gini = 0.061<br/>samples = 79<br/>value = [123, 4]>, fillcolor="#e6853f"] ;
476 -> 482 ;
483 [label=<LIVE_CITY_NOT_WORK_CITY &le; 0.5<br/>gini = 0.202<br/>samples = 22<br/>value = [31, 4]>, fillcolor="#e89153"] ;
482 -> 483 ;
484 [label=<gini = 0.0<br/>samples = 16<br/>value = [23, 0]>, fillcolor="#e58139"] ;
483 -> 484 ;
485 [label=<gini = 0.444<br/>samples = 6<br/>value = [8, 4]>, fillcolor="#f2c09c"] ;
483 -> 485 ;
486 [label=<gini = 0.0<br/>samples = 57<br/>value = [92, 0]>, fillcolor="#e58139"] ;
482 -> 486 ;
487 [label=<AMT_REQ_CREDIT_BUREAU_YEAR &le; 6.5<br/>gini = 0.474<br/>samples = 310<br/>value = [433, 272]>, fillcolor="#f5d0b5"] ;
475 -> 487 ;
488 [label=<AMT_GOODS_PRICE EXT_SOURCE_2 &le; 0.125<br/>gini = 0.464<br/>samples = 303<br/>value = [429.0, 248.0]>, fillcolor="#f4caab"] ;
487 -> 488 ;
489 [label=<gini = 0.0<br/>samples = 15<br/>value = [24, 0]>, fillcolor="#e58139"] ;
488 -> 489 ;
490 [label=<AMT_ANNUITY EXT_SOURCE_2 &le; 0.115<br/>gini = 0.471<br/>samples = 288<br/>value = [405, 248]>, fillcolor="#f5ceb2"] ;
488 -> 490 ;
491 [label=<gini = 0.361<br/>samples = 102<br/>value = [155, 48]>, fillcolor="#eda876"] ;
490 -> 491 ;
492 [label=<gini = 0.494<br/>samples = 186<br/>value = [250, 200]>, fillcolor="#fae6d7"] ;
490 -> 492 ;
493 [label=<DAYS_LAST_PHONE_CHANGE &le; 0.567<br/>gini = 0.245<br/>samples = 7<br/>value = [4, 24]>, fillcolor="#5aade9"] ;
487 -> 493 ;
494 [label=<gini = 0.0<br/>samples = 1<br/>value = [2, 0]>, fillcolor="#e58139"] ;
493 -> 494 ;
495 [label=<AMT_INCOME_TOTAL AMT_GOODS_PRICE &le; 0.004<br/>gini = 0.142<br/>samples = 6<br/>value = [2, 24]>, fillcolor="#49a5e7"] ;
493 -> 495 ;
496 [label=<gini = 0.0<br/>samples = 2<br/>value = [2, 0]>, fillcolor="#e58139"] ;
495 -> 496 ;
497 [label=<gini = 0.0<br/>samples = 4<br/>value = [0, 24]>, fillcolor="#399de5"] ;
495 -> 497 ;
498 [label=<DAYS_EMPLOYED &le; 0.828<br/>gini = 0.48<br/>samples = 39252<br/>value = [53128.0, 35288.0]>, fillcolor="#f6d5bd"] ;
0 -> 498 [labeldistance=2.5, labelangle=-45, headlabel="False"] ;
499 [label=<EXT_SOURCE_2 &le; 0.768<br/>gini = 0.431<br/>samples = 8953<br/>value = [12705, 5832]>, fillcolor="#f1bb94"] ;
498 -> 499 ;
500 [label=<REGION_POPULATION_RELATIVE &le; 0.039<br/>gini = 0.463<br/>samples = 4960<br/>value = [6882, 3928]>, fillcolor="#f4c9aa"] ;
499 -> 500 ;
501 [label=<DAYS_ID_PUBLISH &le; 0.342<br/>gini = 0.049<br/>samples = 96<br/>value = [155, 4]>, fillcolor="#e6843e"] ;
500 -> 501 ;
502 [label=<AMT_REQ_CREDIT_BUREAU_WEEK &le; 0.5<br/>gini = 0.375<br/>samples = 11<br/>value = [12, 4]>, fillcolor="#eeab7b"] ;
501 -> 502 ;
503 [label=<gini = 0.0<br/>samples = 10<br/>value = [12, 0]>, fillcolor="#e58139"] ;
502 -> 503 ;
504 [label=<gini = 0.0<br/>samples = 1<br/>value = [0, 4]>, fillcolor="#399de5"] ;
502 -> 504 ;
505 [label=<gini = 0.0<br/>samples = 85<br/>value = [143, 0]>, fillcolor="#e58139"] ;
501 -> 505 ;
506 [label=<NAME_INCOME_TYPE &le; 0.5<br/>gini = 0.465<br/>samples = 4864<br/>value = [6727.0, 3924.0]>, fillcolor="#f4caac"] ;
500 -> 506 ;
507 [label=<AMT_CREDIT AMT_ANNUITY &le; 0.049<br/>gini = 0.481<br/>samples = 3063<br/>value = [4201, 2828]>, fillcolor="#f7d6be"] ;
506 -> 507 ;
508 [label=<AMT_CREDIT AMT_ANNUITY &le; 0.004<br/>gini = 0.486<br/>samples = 2755<br/>value = [3734.0, 2668.0]>, fillcolor="#f8dbc6"] ;
507 -> 508 ;
509 [label=<DAYS_EMPLOYED &le; 0.793<br/>gini = 0.446<br/>samples = 537<br/>value = [768, 388]>, fillcolor="#f2c19d"] ;
508 -> 509 ;
510 [label=<EXT_SOURCE_3 &le; 0.34<br/>gini = 0.389<br/>samples = 396<br/>value = [589.0, 212.0]>, fillcolor="#eeae80"] ;
509 -> 510 ;
511 [label=<EXT_SOURCE_2^2 &le; 0.421<br/>gini = 0.5<br/>samples = 57<br/>value = [82, 80]>, fillcolor="#fefcfa"] ;
510 -> 511 ;
512 [label=<gini = 0.0<br/>samples = 21<br/>value = [35, 0]>, fillcolor="#e58139"] ;
511 -> 512 ;
513 [label=<gini = 0.466<br/>samples = 36<br/>value = [47, 80]>, fillcolor="#add7f4"] ;
511 -> 513 ;
514 [label=<AMT_ANNUITY^2 &le; 0.006<br/>gini = 0.328<br/>samples = 339<br/>value = [507, 132]>, fillcolor="#eca26d"] ;
510 -> 514 ;
515 [label=<gini = 0.316<br/>samples = 338<br/>value = [507, 124]>, fillcolor="#eba069"] ;
514 -> 515 ;
516 [label=<gini = 0.0<br/>samples = 1<br/>value = [0, 8]>, fillcolor="#399de5"] ;
514 -> 516 ;
517 [label=<AMT_CREDIT AMT_GOODS_PRICE &le; 0.002<br/>gini = 0.5<br/>samples = 141<br/>value = [179, 176]>, fillcolor="#fffdfc"] ;
509 -> 517 ;
518 [label=<AMT_INCOME_TOTAL EXT_SOURCE_2 &le; 0.009<br/>gini = 0.489<br/>samples = 98<br/>value = [118, 160]>, fillcolor="#cbe5f8"] ;
517 -> 518 ;
519 [label=<gini = 0.5<br/>samples = 92<br/>value = [115.0, 112.0]>, fillcolor="#fefcfa"] ;
518 -> 519 ;
520 [label=<gini = 0.111<br/>samples = 6<br/>value = [3, 48]>, fillcolor="#45a3e7"] ;
518 -> 520 ;
521 [label=<EXT_SOURCE_2 &le; 0.589<br/>gini = 0.329<br/>samples = 43<br/>value = [61, 16]>, fillcolor="#eca26d"] ;
517 -> 521 ;
522 [label=<gini = 0.375<br/>samples = 5<br/>value = [4, 12]>, fillcolor="#7bbeee"] ;
521 -> 522 ;
523 [label=<gini = 0.123<br/>samples = 38<br/>value = [57, 4]>, fillcolor="#e78a47"] ;
521 -> 523 ;
524 [label=<AMT_GOODS_PRICE^2 &le; 0.012<br/>gini = 0.491<br/>samples = 2218<br/>value = [2966, 2280]>, fillcolor="#f9e2d1"] ;
508 -> 524 ;
525 [label=<DAYS_BIRTH &le; 0.482<br/>gini = 0.5<br/>samples = 823<br/>value = [1053, 1028]>, fillcolor="#fefcfa"] ;
524 -> 525 ;
526 [label=<AMT_INCOME_TOTAL AMT_ANNUITY &le; 0.001<br/>gini = 0.474<br/>samples = 356<br/>value = [483, 304]>, fillcolor="#f5d0b6"] ;
525 -> 526 ;
527 [label=<gini = 0.5<br/>samples = 113<br/>value = [143, 148]>, fillcolor="#f8fcfe"] ;
526 -> 527 ;
528 [label=<gini = 0.431<br/>samples = 243<br/>value = [340, 156]>, fillcolor="#f1bb94"] ;
526 -> 528 ;
529 [label=<AMT_CREDIT EXT_SOURCE_2 &le; 0.093<br/>gini = 0.493<br/>samples = 467<br/>value = [570, 724]>, fillcolor="#d5eaf9"] ;
525 -> 529 ;
530 [label=<gini = 0.498<br/>samples = 387<br/>value = [485, 548]>, fillcolor="#e8f4fc"] ;
529 -> 530 ;
531 [label=<gini = 0.439<br/>samples = 80<br/>value = [85.0, 176.0]>, fillcolor="#99ccf2"] ;
529 -> 531 ;
532 [label=<DAYS_REGISTRATION &le; 0.967<br/>gini = 0.478<br/>samples = 1395<br/>value = [1913.0, 1252.0]>, fillcolor="#f6d3bb"] ;
524 -> 532 ;
533 [label=<DAYS_ID_PUBLISH &le; 0.33<br/>gini = 0.47<br/>samples = 1268<br/>value = [1759, 1064]>, fillcolor="#f5cdb1"] ;
532 -> 533 ;
534 [label=<gini = 0.152<br/>samples = 85<br/>value = [133, 12]>, fillcolor="#e78c4b"] ;
533 -> 534 ;
535 [label=<gini = 0.477<br/>samples = 1183<br/>value = [1626, 1052]>, fillcolor="#f6d3b9"] ;
533 -> 535 ;
536 [label=<EXT_SOURCE_3 &le; 0.603<br/>gini = 0.495<br/>samples = 127<br/>value = [154, 188]>, fillcolor="#dbedfa"] ;
532 -> 536 ;
537 [label=<gini = 0.435<br/>samples = 75<br/>value = [79, 168]>, fillcolor="#96cbf1"] ;
536 -> 537 ;
538 [label=<gini = 0.332<br/>samples = 52<br/>value = [75, 20]>, fillcolor="#eca36e"] ;
536 -> 538 ;
539 [label=<EXT_SOURCE_2 &le; 0.746<br/>gini = 0.38<br/>samples = 308<br/>value = [467, 160]>, fillcolor="#eeac7d"] ;
507 -> 539 ;
540 [label=<FLAG_OWN_CAR &le; 0.5<br/>gini = 0.413<br/>samples = 264<br/>value = [390, 160]>, fillcolor="#f0b58a"] ;
539 -> 540 ;
541 [label=<AMT_GOODS_PRICE &le; 0.314<br/>gini = 0.469<br/>samples = 140<br/>value = [199, 120]>, fillcolor="#f5cdb0"] ;
540 -> 541 ;
542 [label=<EXT_SOURCE_3 &le; 0.171<br/>gini = 0.286<br/>samples = 70<br/>value = [115, 24]>, fillcolor="#ea9b62"] ;
541 -> 542 ;
543 [label=<gini = 0.32<br/>samples = 3<br/>value = [3, 12]>, fillcolor="#6ab6ec"] ;
542 -> 543 ;
544 [label=<gini = 0.175<br/>samples = 67<br/>value = [112, 12]>, fillcolor="#e88e4e"] ;
542 -> 544 ;
545 [label=<DAYS_ID_PUBLISH &le; 0.604<br/>gini = 0.498<br/>samples = 70<br/>value = [84, 96]>, fillcolor="#e6f3fc"] ;
541 -> 545 ;
546 [label=<gini = 0.308<br/>samples = 39<br/>value = [51, 12]>, fillcolor="#eb9f68"] ;
545 -> 546 ;
547 [label=<gini = 0.405<br/>samples = 31<br/>value = [33, 84]>, fillcolor="#87c4ef"] ;
545 -> 547 ;
548 [label=<NAME_TYPE_SUITE &le; 0.5<br/>gini = 0.286<br/>samples = 124<br/>value = [191, 40]>, fillcolor="#ea9b62"] ;
540 -> 548 ;
549 [label=<ORGANIZATION_TYPE &le; 52.0<br/>gini = 0.158<br/>samples = 104<br/>value = [169, 16]>, fillcolor="#e78d4c"] ;
548 -> 549 ;
550 [label=<gini = 0.124<br/>samples = 103<br/>value = [169, 12]>, fillcolor="#e78a47"] ;
549 -> 550 ;
551 [label=<gini = 0.0<br/>samples = 1<br/>value = [0, 4]>, fillcolor="#399de5"] ;
549 -> 551 ;
552 [label=<AMT_GOODS_PRICE^2 &le; 0.081<br/>gini = 0.499<br/>samples = 20<br/>value = [22, 24]>, fillcolor="#eff7fd"] ;
548 -> 552 ;
553 [label=<gini = 0.32<br/>samples = 8<br/>value = [5, 20]>, fillcolor="#6ab6ec"] ;
552 -> 553 ;
554 [label=<gini = 0.308<br/>samples = 12<br/>value = [17, 4]>, fillcolor="#eb9f68"] ;
552 -> 554 ;
555 [label=<gini = 0.0<br/>samples = 44<br/>value = [77, 0]>, fillcolor="#e58139"] ;
539 -> 555 ;
556 [label=<DAYS_REGISTRATION &le; 0.917<br/>gini = 0.422<br/>samples = 1801<br/>value = [2526, 1096]>, fillcolor="#f0b88f"] ;
506 -> 556 ;
557 [label=<AMT_INCOME_TOTAL AMT_ANNUITY &le; 0.001<br/>gini = 0.401<br/>samples = 1401<br/>value = [1997.0, 768.0]>, fillcolor="#efb185"] ;
556 -> 557 ;
558 [label=<AMT_INCOME_TOTAL AMT_CREDIT &le; 0.0<br/>gini = 0.34<br/>samples = 629<br/>value = [939, 260]>, fillcolor="#eca470"] ;
557 -> 558 ;
559 [label=<DAYS_EMPLOYED &le; 0.772<br/>gini = 0.463<br/>samples = 112<br/>value = [154, 88]>, fillcolor="#f4c9aa"] ;
558 -> 559 ;
560 [label=<AMT_ANNUITY^2 &le; 0.002<br/>gini = 0.492<br/>samples = 81<br/>value = [108, 84]>, fillcolor="#f9e3d3"] ;
559 -> 560 ;
561 [label=<gini = 0.498<br/>samples = 57<br/>value = [70, 80]>, fillcolor="#e6f3fc"] ;
560 -> 561 ;
562 [label=<gini = 0.172<br/>samples = 24<br/>value = [38, 4]>, fillcolor="#e88e4e"] ;
560 -> 562 ;
563 [label=<DEF_60_CNT_SOCIAL_CIRCLE &le; 1.5<br/>gini = 0.147<br/>samples = 31<br/>value = [46, 4]>, fillcolor="#e78c4a"] ;
559 -> 563 ;
564 [label=<gini = 0.0<br/>samples = 30<br/>value = [46, 0]>, fillcolor="#e58139"] ;
563 -> 564 ;
565 [label=<gini = 0.0<br/>samples = 1<br/>value = [0, 4]>, fillcolor="#399de5"] ;
563 -> 565 ;
566 [label=<DAYS_ID_PUBLISH &le; 0.599<br/>gini = 0.295<br/>samples = 517<br/>value = [785, 172]>, fillcolor="#eb9d64"] ;
558 -> 566 ;
567 [label=<AMT_INCOME_TOTAL EXT_SOURCE_2 &le; 0.003<br/>gini = 0.364<br/>samples = 297<br/>value = [432, 136]>, fillcolor="#eda977"] ;
566 -> 567 ;
568 [label=<gini = 0.5<br/>samples = 26<br/>value = [34, 36]>, fillcolor="#f4fafe"] ;
567 -> 568 ;
569 [label=<gini = 0.321<br/>samples = 271<br/>value = [398, 100]>, fillcolor="#eca16b"] ;
567 -> 569 ;
570 [label=<AMT_ANNUITY &le; 0.105<br/>gini = 0.168<br/>samples = 220<br/>value = [353, 36]>, fillcolor="#e88e4d"] ;
566 -> 570 ;
571 [label=<gini = 0.115<br/>samples = 191<br/>value = [306, 20]>, fillcolor="#e78946"] ;
570 -> 571 ;
572 [label=<gini = 0.379<br/>samples = 29<br/>value = [47, 16]>, fillcolor="#eeac7c"] ;
570 -> 572 ;
573 [label=<FLAG_DOCUMENT_8 &le; 0.5<br/>gini = 0.438<br/>samples = 772<br/>value = [1058.0, 508.0]>, fillcolor="#f1bd98"] ;
557 -> 573 ;
574 [label=<AMT_CREDIT EXT_SOURCE_2 &le; 0.421<br/>gini = 0.454<br/>samples = 694<br/>value = [936, 500]>, fillcolor="#f3c4a3"] ;
573 -> 574 ;
575 [label=<DAYS_ID_PUBLISH &le; 0.642<br/>gini = 0.448<br/>samples = 689<br/>value = [932.0, 476.0]>, fillcolor="#f2c19e"] ;
574 -> 575 ;
576 [label=<gini = 0.39<br/>samples = 447<br/>value = [610.0, 220.0]>, fillcolor="#eeae80"] ;
575 -> 576 ;
577 [label=<gini = 0.493<br/>samples = 242<br/>value = [322, 256]>, fillcolor="#fae5d6"] ;
575 -> 577 ;
578 [label=<DAYS_LAST_PHONE_CHANGE &le; 0.434<br/>gini = 0.245<br/>samples = 5<br/>value = [4, 24]>, fillcolor="#5aade9"] ;
574 -> 578 ;
579 [label=<gini = 0.0<br/>samples = 3<br/>value = [4, 0]>, fillcolor="#e58139"] ;
578 -> 579 ;
580 [label=<gini = 0.0<br/>samples = 2<br/>value = [0, 24]>, fillcolor="#399de5"] ;
578 -> 580 ;
581 [label=<REGION_RATING_CLIENT_W_CITY &le; 2.5<br/>gini = 0.116<br/>samples = 78<br/>value = [122, 8]>, fillcolor="#e78946"] ;
573 -> 581 ;
582 [label=<AMT_ANNUITY^2 &le; 0.015<br/>gini = 0.065<br/>samples = 72<br/>value = [115, 4]>, fillcolor="#e68540"] ;
581 -> 582 ;
583 [label=<gini = 0.26<br/>samples = 13<br/>value = [22, 4]>, fillcolor="#ea985d"] ;
582 -> 583 ;
584 [label=<gini = 0.0<br/>samples = 59<br/>value = [93, 0]>, fillcolor="#e58139"] ;
582 -> 584 ;
585 [label=<NAME_FAMILY_STATUS &le; 3.0<br/>gini = 0.463<br/>samples = 6<br/>value = [7, 4]>, fillcolor="#f4c9aa"] ;
581 -> 585 ;
586 [label=<gini = 0.0<br/>samples = 5<br/>value = [7, 0]>, fillcolor="#e58139"] ;
585 -> 586 ;
587 [label=<gini = 0.0<br/>samples = 1<br/>value = [0, 4]>, fillcolor="#399de5"] ;
585 -> 587 ;
588 [label=<AMT_REQ_CREDIT_BUREAU_QRT &le; 0.5<br/>gini = 0.472<br/>samples = 400<br/>value = [529, 328]>, fillcolor="#f5cfb4"] ;
556 -> 588 ;
589 [label=<OBS_30_CNT_SOCIAL_CIRCLE &le; 2.5<br/>gini = 0.487<br/>samples = 328<br/>value = [431.0, 312.0]>, fillcolor="#f8dcc8"] ;
588 -> 589 ;
590 [label=<EXT_SOURCE_3 &le; 0.608<br/>gini = 0.457<br/>samples = 249<br/>value = [337, 184]>, fillcolor="#f3c6a5"] ;
589 -> 590 ;
591 [label=<AMT_ANNUITY EXT_SOURCE_2 &le; 0.026<br/>gini = 0.495<br/>samples = 143<br/>value = [186, 152]>, fillcolor="#fae8db"] ;
590 -> 591 ;
592 [label=<gini = 0.175<br/>samples = 6<br/>value = [3, 28]>, fillcolor="#4ea8e8"] ;
591 -> 592 ;
593 [label=<gini = 0.482<br/>samples = 137<br/>value = [183, 124]>, fillcolor="#f7d6bf"] ;
591 -> 593 ;
594 [label=<EXT_SOURCE_2^2 &le; 0.527<br/>gini = 0.289<br/>samples = 106<br/>value = [151, 32]>, fillcolor="#eb9c63"] ;
590 -> 594 ;
595 [label=<gini = 0.364<br/>samples = 75<br/>value = [102, 32]>, fillcolor="#eda977"] ;
594 -> 595 ;
596 [label=<gini = 0.0<br/>samples = 31<br/>value = [49, 0]>, fillcolor="#e58139"] ;
594 -> 596 ;
597 [label=<AMT_REQ_CREDIT_BUREAU_YEAR &le; 6.5<br/>gini = 0.488<br/>samples = 79<br/>value = [94, 128]>, fillcolor="#cae5f8"] ;
589 -> 597 ;
598 [label=<AMT_CREDIT &le; 1304619.75<br/>gini = 0.497<br/>samples = 75<br/>value = [93, 108]>, fillcolor="#e4f1fb"] ;
597 -> 598 ;
599 [label=<gini = 0.489<br/>samples = 62<br/>value = [81.0, 60.0]>, fillcolor="#f8decc"] ;
598 -> 599 ;
600 [label=<gini = 0.32<br/>samples = 13<br/>value = [12, 48]>, fillcolor="#6ab6ec"] ;
598 -> 600 ;
601 [label=<AMT_ANNUITY AMT_GOODS_PRICE &le; 0.024<br/>gini = 0.091<br/>samples = 4<br/>value = [1, 20]>, fillcolor="#43a2e6"] ;
597 -> 601 ;
602 [label=<gini = 0.0<br/>samples = 3<br/>value = [0, 20]>, fillcolor="#399de5"] ;
601 -> 602 ;
603 [label=<gini = 0.0<br/>samples = 1<br/>value = [1, 0]>, fillcolor="#e58139"] ;
601 -> 603 ;
604 [label=<DAYS_LAST_PHONE_CHANGE &le; 0.926<br/>gini = 0.241<br/>samples = 72<br/>value = [98, 16]>, fillcolor="#e99659"] ;
588 -> 604 ;
605 [label=<NAME_FAMILY_STATUS &le; 1.5<br/>gini = 0.097<br/>samples = 54<br/>value = [74, 4]>, fillcolor="#e68844"] ;
604 -> 605 ;
606 [label=<gini = 0.0<br/>samples = 45<br/>value = [62, 0]>, fillcolor="#e58139"] ;
605 -> 606 ;
607 [label=<REG_CITY_NOT_LIVE_CITY &le; 0.5<br/>gini = 0.375<br/>samples = 9<br/>value = [12, 4]>, fillcolor="#eeab7b"] ;
605 -> 607 ;
608 [label=<gini = 0.0<br/>samples = 8<br/>value = [12, 0]>, fillcolor="#e58139"] ;
607 -> 608 ;
609 [label=<gini = 0.0<br/>samples = 1<br/>value = [0, 4]>, fillcolor="#399de5"] ;
607 -> 609 ;
610 [label=<DAYS_ID_PUBLISH &le; 0.767<br/>gini = 0.444<br/>samples = 18<br/>value = [24, 12]>, fillcolor="#f2c09c"] ;
604 -> 610 ;
611 [label=<DAYS_ID_PUBLISH &le; 0.313<br/>gini = 0.252<br/>samples = 16<br/>value = [23, 4]>, fillcolor="#ea975b"] ;
610 -> 611 ;
612 [label=<gini = 0.0<br/>samples = 1<br/>value = [0, 4]>, fillcolor="#399de5"] ;
611 -> 612 ;
613 [label=<gini = 0.0<br/>samples = 15<br/>value = [23, 0]>, fillcolor="#e58139"] ;
611 -> 613 ;
614 [label=<CNT_FAM_MEMBERS &le; 3.0<br/>gini = 0.198<br/>samples = 2<br/>value = [1, 8]>, fillcolor="#52a9e8"] ;
610 -> 614 ;
615 [label=<gini = 0.0<br/>samples = 1<br/>value = [1, 0]>, fillcolor="#e58139"] ;
614 -> 615 ;
616 [label=<gini = 0.0<br/>samples = 1<br/>value = [0, 8]>, fillcolor="#399de5"] ;
614 -> 616 ;
617 [label=<EXT_SOURCE_3 &le; 0.48<br/>gini = 0.371<br/>samples = 3993<br/>value = [5823, 1904]>, fillcolor="#eeaa7a"] ;
499 -> 617 ;
618 [label=<DAYS_REGISTRATION &le; 0.983<br/>gini = 0.486<br/>samples = 859<br/>value = [1128, 808]>, fillcolor="#f8dbc7"] ;
617 -> 618 ;
619 [label=<AMT_GOODS_PRICE EXT_SOURCE_2 &le; 0.176<br/>gini = 0.479<br/>samples = 820<br/>value = [1092, 724]>, fillcolor="#f6d5bc"] ;
618 -> 619 ;
620 [label=<ORGANIZATION_TYPE &le; 35.5<br/>gini = 0.493<br/>samples = 573<br/>value = [744, 584]>, fillcolor="#f9e4d4"] ;
619 -> 620 ;
621 [label=<AMT_INCOME_TOTAL EXT_SOURCE_2 &le; 0.007<br/>gini = 0.496<br/>samples = 536<br/>value = [688, 580]>, fillcolor="#fbebe0"] ;
620 -> 621 ;
622 [label=<EXT_SOURCE_2 &le; 0.836<br/>gini = 0.45<br/>samples = 230<br/>value = [300, 156]>, fillcolor="#f3c3a0"] ;
621 -> 622 ;
623 [label=<AMT_INCOME_TOTAL AMT_GOODS_PRICE &le; 0.0<br/>gini = 0.479<br/>samples = 155<br/>value = [206, 136]>, fillcolor="#f6d4bc"] ;
622 -> 623 ;
624 [label=<gini = 0.471<br/>samples = 25<br/>value = [27, 44]>, fillcolor="#b2d9f5"] ;
623 -> 624 ;
625 [label=<gini = 0.448<br/>samples = 130<br/>value = [179, 92]>, fillcolor="#f2c29f"] ;
623 -> 625 ;
626 [label=<DAYS_REGISTRATION &le; 0.865<br/>gini = 0.289<br/>samples = 75<br/>value = [94, 20]>, fillcolor="#eb9c63"] ;
622 -> 626 ;
627 [label=<gini = 0.089<br/>samples = 62<br/>value = [82, 4]>, fillcolor="#e68743"] ;
626 -> 627 ;
628 [label=<gini = 0.49<br/>samples = 13<br/>value = [12, 16]>, fillcolor="#cee6f8"] ;
626 -> 628 ;
629 [label=<REGION_POPULATION_RELATIVE &le; 0.469<br/>gini = 0.499<br/>samples = 306<br/>value = [388, 424]>, fillcolor="#eef7fd"] ;
621 -> 629 ;
630 [label=<AMT_GOODS_PRICE EXT_SOURCE_2 &le; 0.054<br/>gini = 0.491<br/>samples = 222<br/>value = [271, 356]>, fillcolor="#d0e8f9"] ;
629 -> 630 ;
631 [label=<gini = 0.413<br/>samples = 27<br/>value = [39, 16]>, fillcolor="#f0b58a"] ;
630 -> 631 ;
632 [label=<gini = 0.482<br/>samples = 195<br/>value = [232, 340]>, fillcolor="#c0e0f7"] ;
630 -> 632 ;
633 [label=<AMT_INCOME_TOTAL AMT_GOODS_PRICE &le; 0.001<br/>gini = 0.465<br/>samples = 84<br/>value = [117, 68]>, fillcolor="#f4caac"] ;
629 -> 633 ;
634 [label=<gini = 0.384<br/>samples = 8<br/>value = [7, 20]>, fillcolor="#7ebfee"] ;
633 -> 634 ;
635 [label=<gini = 0.423<br/>samples = 76<br/>value = [110.0, 48.0]>, fillcolor="#f0b88f"] ;
633 -> 635 ;
636 [label=<DAYS_EMPLOYED &le; 0.68<br/>gini = 0.124<br/>samples = 37<br/>value = [56, 4]>, fillcolor="#e78a47"] ;
620 -> 636 ;
637 [label=<AMT_INCOME_TOTAL AMT_ANNUITY &le; 0.002<br/>gini = 0.308<br/>samples = 13<br/>value = [17, 4]>, fillcolor="#eb9f68"] ;
636 -> 637 ;
638 [label=<gini = 0.0<br/>samples = 9<br/>value = [13, 0]>, fillcolor="#e58139"] ;
637 -> 638 ;
639 [label=<AMT_INCOME_TOTAL &le; 0.001<br/>gini = 0.5<br/>samples = 4<br/>value = [4, 4]>, fillcolor="#ffffff"] ;
637 -> 639 ;
640 [label=<gini = 0.0<br/>samples = 1<br/>value = [0, 4]>, fillcolor="#399de5"] ;
639 -> 640 ;
641 [label=<gini = 0.0<br/>samples = 3<br/>value = [4, 0]>, fillcolor="#e58139"] ;
639 -> 641 ;
642 [label=<gini = 0.0<br/>samples = 24<br/>value = [39, 0]>, fillcolor="#e58139"] ;
636 -> 642 ;
643 [label=<AMT_INCOME_TOTAL^2 &le; 0.0<br/>gini = 0.409<br/>samples = 247<br/>value = [348, 140]>, fillcolor="#efb489"] ;
619 -> 643 ;
644 [label=<REGION_RATING_CLIENT_W_CITY &le; 2.5<br/>gini = 0.383<br/>samples = 241<br/>value = [344.0, 120.0]>, fillcolor="#eead7e"] ;
643 -> 644 ;
645 [label=<AMT_REQ_CREDIT_BUREAU_MON &le; 3.5<br/>gini = 0.354<br/>samples = 230<br/>value = [335, 100]>, fillcolor="#eda774"] ;
644 -> 645 ;
646 [label=<DAYS_REGISTRATION &le; 0.918<br/>gini = 0.289<br/>samples = 218<br/>value = [320, 68]>, fillcolor="#eb9c63"] ;
645 -> 646 ;
647 [label=<gini = 0.201<br/>samples = 183<br/>value = [281, 36]>, fillcolor="#e89152"] ;
646 -> 647 ;
648 [label=<gini = 0.495<br/>samples = 35<br/>value = [39, 32]>, fillcolor="#fae8db"] ;
646 -> 648 ;
649 [label=<OBS_30_CNT_SOCIAL_CIRCLE &le; 0.5<br/>gini = 0.435<br/>samples = 12<br/>value = [15, 32]>, fillcolor="#96cbf1"] ;
645 -> 649 ;
650 [label=<gini = 0.234<br/>samples = 6<br/>value = [5, 32]>, fillcolor="#58ace9"] ;
649 -> 650 ;
651 [label=<gini = 0.0<br/>samples = 6<br/>value = [10, 0]>, fillcolor="#e58139"] ;
649 -> 651 ;
652 [label=<AMT_INCOME_TOTAL AMT_GOODS_PRICE &le; 0.003<br/>gini = 0.428<br/>samples = 11<br/>value = [9, 20]>, fillcolor="#92c9f1"] ;
644 -> 652 ;
653 [label=<AMT_CREDIT &le; 1277930.25<br/>gini = 0.227<br/>samples = 6<br/>value = [3, 20]>, fillcolor="#57ace9"] ;
652 -> 653 ;
654 [label=<gini = 0.091<br/>samples = 5<br/>value = [1, 20]>, fillcolor="#43a2e6"] ;
653 -> 654 ;
655 [label=<gini = 0.0<br/>samples = 1<br/>value = [2, 0]>, fillcolor="#e58139"] ;
653 -> 655 ;
656 [label=<gini = 0.0<br/>samples = 5<br/>value = [6, 0]>, fillcolor="#e58139"] ;
652 -> 656 ;
657 [label=<OBS_60_CNT_SOCIAL_CIRCLE &le; 1.5<br/>gini = 0.278<br/>samples = 6<br/>value = [4, 20]>, fillcolor="#61b1ea"] ;
643 -> 657 ;
658 [label=<gini = 0.0<br/>samples = 3<br/>value = [4, 0]>, fillcolor="#e58139"] ;
657 -> 658 ;
659 [label=<gini = 0.0<br/>samples = 3<br/>value = [0, 20]>, fillcolor="#399de5"] ;
657 -> 659 ;
660 [label=<REGION_POPULATION_RELATIVE &le; 0.236<br/>gini = 0.42<br/>samples = 39<br/>value = [36, 84]>, fillcolor="#8ec7f0"] ;
618 -> 660 ;
661 [label=<DAYS_REGISTRATION &le; 0.998<br/>gini = 0.091<br/>samples = 13<br/>value = [3, 60]>, fillcolor="#43a2e6"] ;
660 -> 661 ;
662 [label=<DAYS_EMPLOYED &le; 0.763<br/>gini = 0.032<br/>samples = 11<br/>value = [1, 60]>, fillcolor="#3c9fe5"] ;
661 -> 662 ;
663 [label=<gini = 0.0<br/>samples = 7<br/>value = [0, 48]>, fillcolor="#399de5"] ;
662 -> 663 ;
664 [label=<EXT_SOURCE_2^2 &le; 0.643<br/>gini = 0.142<br/>samples = 4<br/>value = [1, 12]>, fillcolor="#49a5e7"] ;
662 -> 664 ;
665 [label=<gini = 0.0<br/>samples = 3<br/>value = [0, 12]>, fillcolor="#399de5"] ;
664 -> 665 ;
666 [label=<gini = 0.0<br/>samples = 1<br/>value = [1, 0]>, fillcolor="#e58139"] ;
664 -> 666 ;
667 [label=<gini = 0.0<br/>samples = 2<br/>value = [2, 0]>, fillcolor="#e58139"] ;
661 -> 667 ;
668 [label=<AMT_INCOME_TOTAL &le; 0.001<br/>gini = 0.488<br/>samples = 26<br/>value = [33, 24]>, fillcolor="#f8ddc9"] ;
660 -> 668 ;
669 [label=<gini = 0.0<br/>samples = 1<br/>value = [0, 12]>, fillcolor="#399de5"] ;
668 -> 669 ;
670 [label=<AMT_INCOME_TOTAL EXT_SOURCE_2 &le; 0.01<br/>gini = 0.391<br/>samples = 25<br/>value = [33, 12]>, fillcolor="#eeaf81"] ;
668 -> 670 ;
671 [label=<gini = 0.0<br/>samples = 16<br/>value = [24, 0]>, fillcolor="#e58139"] ;
670 -> 671 ;
672 [label=<OBS_60_CNT_SOCIAL_CIRCLE &le; 3.5<br/>gini = 0.49<br/>samples = 9<br/>value = [9, 12]>, fillcolor="#cee6f8"] ;
670 -> 672 ;
673 [label=<gini = 0.0<br/>samples = 7<br/>value = [9, 0]>, fillcolor="#e58139"] ;
672 -> 673 ;
674 [label=<gini = 0.0<br/>samples = 2<br/>value = [0, 12]>, fillcolor="#399de5"] ;
672 -> 674 ;
675 [label=<AMT_ANNUITY EXT_SOURCE_2 &le; 0.063<br/>gini = 0.307<br/>samples = 3134<br/>value = [4695, 1096]>, fillcolor="#eb9e67"] ;
617 -> 675 ;
676 [label=<AMT_ANNUITY EXT_SOURCE_2 &le; 0.034<br/>gini = 0.163<br/>samples = 523<br/>value = [812, 80]>, fillcolor="#e88d4d"] ;
675 -> 676 ;
677 [label=<AMT_INCOME_TOTAL EXT_SOURCE_2 &le; 0.011<br/>gini = 0.341<br/>samples = 86<br/>value = [129, 36]>, fillcolor="#eca470"] ;
676 -> 677 ;
678 [label=<AMT_ANNUITY EXT_SOURCE_2 &le; 0.034<br/>gini = 0.243<br/>samples = 79<br/>value = [121, 20]>, fillcolor="#e9965a"] ;
677 -> 678 ;
679 [label=<DAYS_REGISTRATION &le; 0.626<br/>gini = 0.164<br/>samples = 78<br/>value = [121, 12]>, fillcolor="#e88d4d"] ;
678 -> 679 ;
680 [label=<DAYS_BIRTH &le; 0.489<br/>gini = 0.497<br/>samples = 9<br/>value = [14, 12]>, fillcolor="#fbede3"] ;
679 -> 680 ;
681 [label=<gini = 0.0<br/>samples = 6<br/>value = [12, 0]>, fillcolor="#e58139"] ;
680 -> 681 ;
682 [label=<gini = 0.245<br/>samples = 3<br/>value = [2, 12]>, fillcolor="#5aade9"] ;
680 -> 682 ;
683 [label=<gini = 0.0<br/>samples = 69<br/>value = [107, 0]>, fillcolor="#e58139"] ;
679 -> 683 ;
684 [label=<gini = 0.0<br/>samples = 1<br/>value = [0, 8]>, fillcolor="#399de5"] ;
678 -> 684 ;
685 [label=<NAME_CONTRACT_TYPE &le; 0.5<br/>gini = 0.444<br/>samples = 7<br/>value = [8, 16]>, fillcolor="#9ccef2"] ;
677 -> 685 ;
686 [label=<gini = 0.0<br/>samples = 3<br/>value = [5, 0]>, fillcolor="#e58139"] ;
685 -> 686 ;
687 [label=<DAYS_REGISTRATION &le; 0.676<br/>gini = 0.266<br/>samples = 4<br/>value = [3, 16]>, fillcolor="#5eafea"] ;
685 -> 687 ;
688 [label=<gini = 0.0<br/>samples = 2<br/>value = [0, 16]>, fillcolor="#399de5"] ;
687 -> 688 ;
689 [label=<gini = 0.0<br/>samples = 2<br/>value = [3, 0]>, fillcolor="#e58139"] ;
687 -> 689 ;
690 [label=<DAYS_EMPLOYED &le; 0.799<br/>gini = 0.114<br/>samples = 437<br/>value = [683, 44]>, fillcolor="#e78946"] ;
676 -> 690 ;
691 [label=<AMT_REQ_CREDIT_BUREAU_YEAR &le; 4.5<br/>gini = 0.067<br/>samples = 358<br/>value = [557, 20]>, fillcolor="#e68640"] ;
690 -> 691 ;
692 [label=<REGION_RATING_CLIENT_W_CITY &le; 2.5<br/>gini = 0.03<br/>samples = 333<br/>value = [524, 8]>, fillcolor="#e5833c"] ;
691 -> 692 ;
693 [label=<EXT_SOURCE_3 &le; 0.569<br/>gini = 0.016<br/>samples = 315<br/>value = [497.0, 4.0]>, fillcolor="#e5823b"] ;
692 -> 693 ;
694 [label=<gini = 0.121<br/>samples = 34<br/>value = [58, 4]>, fillcolor="#e78a47"] ;
693 -> 694 ;
695 [label=<gini = 0.0<br/>samples = 281<br/>value = [439, 0]>, fillcolor="#e58139"] ;
693 -> 695 ;
696 [label=<DAYS_LAST_PHONE_CHANGE &le; 0.6<br/>gini = 0.225<br/>samples = 18<br/>value = [27, 4]>, fillcolor="#e99456"] ;
692 -> 696 ;
697 [label=<gini = 0.494<br/>samples = 4<br/>value = [5, 4]>, fillcolor="#fae6d7"] ;
696 -> 697 ;
698 [label=<gini = 0.0<br/>samples = 14<br/>value = [22, 0]>, fillcolor="#e58139"] ;
696 -> 698 ;
699 [label=<AMT_ANNUITY EXT_SOURCE_2 &le; 0.047<br/>gini = 0.391<br/>samples = 25<br/>value = [33, 12]>, fillcolor="#eeaf81"] ;
691 -> 699 ;
700 [label=<FLAG_WORK_PHONE &le; 0.5<br/>gini = 0.375<br/>samples = 6<br/>value = [4, 12]>, fillcolor="#7bbeee"] ;
699 -> 700 ;
701 [label=<gini = 0.0<br/>samples = 4<br/>value = [4, 0]>, fillcolor="#e58139"] ;
700 -> 701 ;
702 [label=<gini = 0.0<br/>samples = 2<br/>value = [0, 12]>, fillcolor="#399de5"] ;
700 -> 702 ;
703 [label=<gini = 0.0<br/>samples = 19<br/>value = [29, 0]>, fillcolor="#e58139"] ;
699 -> 703 ;
704 [label=<AMT_ANNUITY^2 &le; 0.003<br/>gini = 0.269<br/>samples = 79<br/>value = [126, 24]>, fillcolor="#ea995f"] ;
690 -> 704 ;
705 [label=<gini = 0.0<br/>samples = 51<br/>value = [90, 0]>, fillcolor="#e58139"] ;
704 -> 705 ;
706 [label=<AMT_ANNUITY &le; 0.048<br/>gini = 0.48<br/>samples = 28<br/>value = [36, 24]>, fillcolor="#f6d5bd"] ;
704 -> 706 ;
707 [label=<gini = 0.0<br/>samples = 3<br/>value = [0, 16]>, fillcolor="#399de5"] ;
706 -> 707 ;
708 [label=<DAYS_LAST_PHONE_CHANGE &le; 0.48<br/>gini = 0.298<br/>samples = 25<br/>value = [36, 8]>, fillcolor="#eb9d65"] ;
706 -> 708 ;
709 [label=<gini = 0.444<br/>samples = 4<br/>value = [4, 8]>, fillcolor="#9ccef2"] ;
708 -> 709 ;
710 [label=<gini = 0.0<br/>samples = 21<br/>value = [32, 0]>, fillcolor="#e58139"] ;
708 -> 710 ;
711 [label=<AMT_GOODS_PRICE EXT_SOURCE_2 &le; 0.282<br/>gini = 0.329<br/>samples = 2611<br/>value = [3883, 1016]>, fillcolor="#eca26d"] ;
675 -> 711 ;
712 [label=<NAME_CONTRACT_TYPE &le; 0.5<br/>gini = 0.35<br/>samples = 2236<br/>value = [3301, 964]>, fillcolor="#eda673"] ;
711 -> 712 ;
713 [label=<REG_CITY_NOT_LIVE_CITY &le; 0.5<br/>gini = 0.362<br/>samples = 2096<br/>value = [3092, 960]>, fillcolor="#eda876"] ;
712 -> 713 ;
714 [label=<AMT_INCOME_TOTAL AMT_ANNUITY &le; 0.001<br/>gini = 0.348<br/>samples = 2021<br/>value = [2992, 864]>, fillcolor="#eda572"] ;
713 -> 714 ;
715 [label=<AMT_CREDIT AMT_GOODS_PRICE &le; 0.004<br/>gini = 0.471<br/>samples = 173<br/>value = [223.0, 136.0]>, fillcolor="#f5ceb2"] ;
714 -> 715 ;
716 [label=<gini = 0.109<br/>samples = 40<br/>value = [65, 4]>, fillcolor="#e78945"] ;
715 -> 716 ;
717 [label=<gini = 0.496<br/>samples = 133<br/>value = [158, 132]>, fillcolor="#fbeade"] ;
715 -> 717 ;
718 [label=<CODE_GENDER &le; 0.5<br/>gini = 0.33<br/>samples = 1848<br/>value = [2769, 728]>, fillcolor="#eca26d"] ;
714 -> 718 ;
719 [label=<gini = 0.4<br/>samples = 602<br/>value = [909.0, 348.0]>, fillcolor="#efb185"] ;
718 -> 719 ;
720 [label=<gini = 0.282<br/>samples = 1246<br/>value = [1860, 380]>, fillcolor="#ea9b61"] ;
718 -> 720 ;
721 [label=<EXT_SOURCE_2 &le; 0.842<br/>gini = 0.5<br/>samples = 75<br/>value = [100, 96]>, fillcolor="#fefaf7"] ;
713 -> 721 ;
722 [label=<AMT_ANNUITY &le; 0.131<br/>gini = 0.479<br/>samples = 47<br/>value = [58, 88]>, fillcolor="#bcdef6"] ;
721 -> 722 ;
723 [label=<gini = 0.437<br/>samples = 37<br/>value = [42, 88]>, fillcolor="#98ccf1"] ;
722 -> 723 ;
724 [label=<gini = 0.0<br/>samples = 10<br/>value = [16, 0]>, fillcolor="#e58139"] ;
722 -> 724 ;
725 [label=<DAYS_EMPLOYED &le; 0.8<br/>gini = 0.269<br/>samples = 28<br/>value = [42, 8]>, fillcolor="#ea995f"] ;
721 -> 725 ;
726 [label=<gini = 0.0<br/>samples = 22<br/>value = [34, 0]>, fillcolor="#e58139"] ;
725 -> 726 ;
727 [label=<gini = 0.5<br/>samples = 6<br/>value = [8, 8]>, fillcolor="#ffffff"] ;
725 -> 727 ;
728 [label=<DEF_30_CNT_SOCIAL_CIRCLE &le; 1.5<br/>gini = 0.037<br/>samples = 140<br/>value = [209, 4]>, fillcolor="#e5833d"] ;
712 -> 728 ;
729 [label=<gini = 0.0<br/>samples = 137<br/>value = [206, 0]>, fillcolor="#e58139"] ;
728 -> 729 ;
730 [label=<AMT_ANNUITY^2 &le; 0.006<br/>gini = 0.49<br/>samples = 3<br/>value = [3, 4]>, fillcolor="#cee6f8"] ;
728 -> 730 ;
731 [label=<gini = 0.0<br/>samples = 1<br/>value = [0, 4]>, fillcolor="#399de5"] ;
730 -> 731 ;
732 [label=<gini = 0.0<br/>samples = 2<br/>value = [3, 0]>, fillcolor="#e58139"] ;
730 -> 732 ;
733 [label=<REGION_POPULATION_RELATIVE &le; 0.096<br/>gini = 0.151<br/>samples = 375<br/>value = [582, 52]>, fillcolor="#e78c4b"] ;
711 -> 733 ;
734 [label=<EXT_SOURCE_3 &le; 0.602<br/>gini = 0.318<br/>samples = 48<br/>value = [81, 20]>, fillcolor="#eba06a"] ;
733 -> 734 ;
735 [label=<DAYS_ID_PUBLISH &le; 0.601<br/>gini = 0.5<br/>samples = 14<br/>value = [19, 20]>, fillcolor="#f5fafe"] ;
734 -> 735 ;
736 [label=<gini = 0.0<br/>samples = 8<br/>value = [14, 0]>, fillcolor="#e58139"] ;
735 -> 736 ;
737 [label=<AMT_INCOME_TOTAL AMT_ANNUITY &le; 0.003<br/>gini = 0.32<br/>samples = 6<br/>value = [5, 20]>, fillcolor="#6ab6ec"] ;
735 -> 737 ;
738 [label=<gini = 0.0<br/>samples = 2<br/>value = [0, 16]>, fillcolor="#399de5"] ;
737 -> 738 ;
739 [label=<gini = 0.494<br/>samples = 4<br/>value = [5, 4]>, fillcolor="#fae6d7"] ;
737 -> 739 ;
740 [label=<gini = 0.0<br/>samples = 34<br/>value = [62, 0]>, fillcolor="#e58139"] ;
734 -> 740 ;
741 [label=<DAYS_LAST_PHONE_CHANGE &le; 0.078<br/>gini = 0.113<br/>samples = 327<br/>value = [501, 32]>, fillcolor="#e78946"] ;
733 -> 741 ;
742 [label=<gini = 0.0<br/>samples = 1<br/>value = [0, 4]>, fillcolor="#399de5"] ;
741 -> 742 ;
743 [label=<DAYS_BIRTH &le; 0.716<br/>gini = 0.1<br/>samples = 326<br/>value = [501, 28]>, fillcolor="#e68844"] ;
741 -> 743 ;
744 [label=<FLAG_DOCUMENT_3 &le; 0.5<br/>gini = 0.063<br/>samples = 308<br/>value = [476, 16]>, fillcolor="#e68540"] ;
743 -> 744 ;
745 [label=<gini = 0.156<br/>samples = 86<br/>value = [129, 12]>, fillcolor="#e78d4b"] ;
744 -> 745 ;
746 [label=<gini = 0.023<br/>samples = 222<br/>value = [347, 4]>, fillcolor="#e5823b"] ;
744 -> 746 ;
747 [label=<DAYS_LAST_PHONE_CHANGE &le; 0.882<br/>gini = 0.438<br/>samples = 18<br/>value = [25, 12]>, fillcolor="#f1bd98"] ;
743 -> 747 ;
748 [label=<gini = 0.0<br/>samples = 14<br/>value = [22, 0]>, fillcolor="#e58139"] ;
747 -> 748 ;
749 [label=<gini = 0.32<br/>samples = 4<br/>value = [3, 12]>, fillcolor="#6ab6ec"] ;
747 -> 749 ;
750 [label=<NAME_INCOME_TYPE &le; 0.5<br/>gini = 0.488<br/>samples = 30299<br/>value = [40423, 29456]>, fillcolor="#f8ddc9"] ;
498 -> 750 ;
751 [label=<EXT_SOURCE_2 &le; 0.726<br/>gini = 0.498<br/>samples = 14476<br/>value = [18572, 16608]>, fillcolor="#fcf2ea"] ;
750 -> 751 ;
752 [label=<AMT_ANNUITY AMT_GOODS_PRICE &le; 0.048<br/>gini = 0.498<br/>samples = 7317<br/>value = [8992, 10080]>, fillcolor="#eaf4fc"] ;
751 -> 752 ;
753 [label=<FLAG_DOCUMENT_18 &le; 0.5<br/>gini = 0.497<br/>samples = 6942<br/>value = [8488, 9780]>, fillcolor="#e5f2fc"] ;
752 -> 753 ;
754 [label=<AMT_GOODS_PRICE &le; 0.215<br/>gini = 0.497<br/>samples = 6897<br/>value = [8408, 9760]>, fillcolor="#e4f1fb"] ;
753 -> 754 ;
755 [label=<EXT_SOURCE_2^2 &le; 0.454<br/>gini = 0.496<br/>samples = 6461<br/>value = [7802, 9372]>, fillcolor="#deeffb"] ;
754 -> 755 ;
756 [label=<FLAG_DOCUMENT_3 &le; 0.5<br/>gini = 0.492<br/>samples = 4154<br/>value = [4943, 6348]>, fillcolor="#d3e9f9"] ;
755 -> 756 ;
757 [label=<AMT_INCOME_TOTAL AMT_CREDIT &le; 0.001<br/>gini = 0.494<br/>samples = 959<br/>value = [1266, 1012]>, fillcolor="#fae6d7"] ;
756 -> 757 ;
758 [label=<gini = 0.462<br/>samples = 624<br/>value = [869, 492]>, fillcolor="#f4c8a9"] ;
757 -> 758 ;
759 [label=<gini = 0.491<br/>samples = 335<br/>value = [397, 520]>, fillcolor="#d0e8f9"] ;
757 -> 759 ;
760 [label=<AMT_GOODS_PRICE^2 &le; 0.001<br/>gini = 0.483<br/>samples = 3195<br/>value = [3677, 5336]>, fillcolor="#c1e1f7"] ;
756 -> 760 ;
761 [label=<gini = 0.497<br/>samples = 319<br/>value = [424.0, 364.0]>, fillcolor="#fbede3"] ;
760 -> 761 ;
762 [label=<gini = 0.478<br/>samples = 2876<br/>value = [3253, 4972]>, fillcolor="#bbddf6"] ;
760 -> 762 ;
763 [label=<DEF_60_CNT_SOCIAL_CIRCLE &le; 0.5<br/>gini = 0.5<br/>samples = 2307<br/>value = [2859, 3024]>, fillcolor="#f4fafe"] ;
755 -> 763 ;
764 [label=<AMT_CREDIT &le; 270596.25<br/>gini = 0.5<br/>samples = 2091<br/>value = [2624, 2568]>, fillcolor="#fefcfb"] ;
763 -> 764 ;
765 [label=<gini = 0.493<br/>samples = 668<br/>value = [873, 688]>, fillcolor="#f9e4d5"] ;
764 -> 765 ;
766 [label=<gini = 0.499<br/>samples = 1423<br/>value = [1751, 1880]>, fillcolor="#f1f8fd"] ;
764 -> 766 ;
767 [label=<FLAG_OWN_CAR &le; 0.5<br/>gini = 0.449<br/>samples = 216<br/>value = [235, 456]>, fillcolor="#9fd0f2"] ;
763 -> 767 ;
768 [label=<gini = 0.421<br/>samples = 143<br/>value = [147, 340]>, fillcolor="#8fc7f0"] ;
767 -> 768 ;
769 [label=<gini = 0.491<br/>samples = 73<br/>value = [88, 116]>, fillcolor="#cfe7f9"] ;
767 -> 769 ;
770 [label=<AMT_CREDIT AMT_GOODS_PRICE &le; 0.08<br/>gini = 0.476<br/>samples = 436<br/>value = [606, 388]>, fillcolor="#f6d2b8"] ;
754 -> 770 ;
771 [label=<CNT_FAM_MEMBERS &le; 1.5<br/>gini = 0.401<br/>samples = 269<br/>value = [385, 148]>, fillcolor="#efb185"] ;
770 -> 771 ;
772 [label=<ORGANIZATION_TYPE &le; 14.5<br/>gini = 0.496<br/>samples = 31<br/>value = [37, 44]>, fillcolor="#e0effb"] ;
771 -> 772 ;
773 [label=<gini = 0.426<br/>samples = 18<br/>value = [16, 36]>, fillcolor="#91c9f1"] ;
772 -> 773 ;
774 [label=<gini = 0.4<br/>samples = 13<br/>value = [21, 8]>, fillcolor="#efb184"] ;
772 -> 774 ;
775 [label=<DAYS_ID_PUBLISH &le; 0.604<br/>gini = 0.354<br/>samples = 238<br/>value = [348, 104]>, fillcolor="#eda774"] ;
771 -> 775 ;
776 [label=<gini = 0.245<br/>samples = 127<br/>value = [192, 32]>, fillcolor="#e9965a"] ;
775 -> 776 ;
777 [label=<gini = 0.432<br/>samples = 111<br/>value = [156, 72]>, fillcolor="#f1bb94"] ;
775 -> 777 ;
778 [label=<DAYS_EMPLOYED &le; 0.972<br/>gini = 0.499<br/>samples = 167<br/>value = [221.0, 240.0]>, fillcolor="#eff7fd"] ;
770 -> 778 ;
779 [label=<AMT_INCOME_TOTAL &le; 0.001<br/>gini = 0.492<br/>samples = 137<br/>value = [176.0, 228.0]>, fillcolor="#d2e9f9"] ;
778 -> 779 ;
780 [label=<gini = 0.32<br/>samples = 19<br/>value = [32, 8]>, fillcolor="#eca06a"] ;
779 -> 780 ;
781 [label=<gini = 0.478<br/>samples = 118<br/>value = [144, 220]>, fillcolor="#bbddf6"] ;
779 -> 781 ;
782 [label=<AMT_CREDIT AMT_GOODS_PRICE &le; 0.087<br/>gini = 0.332<br/>samples = 30<br/>value = [45, 12]>, fillcolor="#eca36e"] ;
778 -> 782 ;
783 [label=<gini = 0.473<br/>samples = 6<br/>value = [5, 8]>, fillcolor="#b5daf5"] ;
782 -> 783 ;
784 [label=<gini = 0.165<br/>samples = 24<br/>value = [40, 4]>, fillcolor="#e88e4d"] ;
782 -> 784 ;
785 [label=<AMT_INCOME_TOTAL AMT_CREDIT &le; 0.001<br/>gini = 0.32<br/>samples = 45<br/>value = [80, 20]>, fillcolor="#eca06a"] ;
753 -> 785 ;
786 [label=<gini = 0.0<br/>samples = 23<br/>value = [45, 0]>, fillcolor="#e58139"] ;
785 -> 786 ;
787 [label=<AMT_CREDIT EXT_SOURCE_2 &le; 0.108<br/>gini = 0.463<br/>samples = 22<br/>value = [35, 20]>, fillcolor="#f4c9aa"] ;
785 -> 787 ;
788 [label=<EXT_SOURCE_2 &le; 0.687<br/>gini = 0.278<br/>samples = 6<br/>value = [4, 20]>, fillcolor="#61b1ea"] ;
787 -> 788 ;
789 [label=<CNT_CHILDREN &le; 1.0<br/>gini = 0.091<br/>samples = 4<br/>value = [1, 20]>, fillcolor="#43a2e6"] ;
788 -> 789 ;
790 [label=<gini = 0.0<br/>samples = 3<br/>value = [0, 20]>, fillcolor="#399de5"] ;
789 -> 790 ;
791 [label=<gini = 0.0<br/>samples = 1<br/>value = [1, 0]>, fillcolor="#e58139"] ;
789 -> 791 ;
792 [label=<gini = 0.0<br/>samples = 2<br/>value = [3, 0]>, fillcolor="#e58139"] ;
788 -> 792 ;
793 [label=<gini = 0.0<br/>samples = 16<br/>value = [31, 0]>, fillcolor="#e58139"] ;
787 -> 793 ;
794 [label=<AMT_CREDIT &le; 2606400.0<br/>gini = 0.468<br/>samples = 375<br/>value = [504, 300]>, fillcolor="#f4ccaf"] ;
752 -> 794 ;
795 [label=<EXT_SOURCE_2^2 &le; 0.317<br/>gini = 0.465<br/>samples = 373<br/>value = [503, 292]>, fillcolor="#f4caac"] ;
794 -> 795 ;
796 [label=<AMT_GOODS_PRICE &le; 0.281<br/>gini = 0.408<br/>samples = 7<br/>value = [8, 20]>, fillcolor="#88c4ef"] ;
795 -> 796 ;
797 [label=<REGION_RATING_CLIENT &le; 2.5<br/>gini = 0.091<br/>samples = 3<br/>value = [1, 20]>, fillcolor="#43a2e6"] ;
796 -> 797 ;
798 [label=<gini = 0.0<br/>samples = 1<br/>value = [1, 0]>, fillcolor="#e58139"] ;
797 -> 798 ;
799 [label=<gini = 0.0<br/>samples = 2<br/>value = [0, 20]>, fillcolor="#399de5"] ;
797 -> 799 ;
800 [label=<gini = 0.0<br/>samples = 4<br/>value = [7, 0]>, fillcolor="#e58139"] ;
796 -> 800 ;
801 [label=<DAYS_LAST_PHONE_CHANGE &le; 0.575<br/>gini = 0.458<br/>samples = 366<br/>value = [495, 272]>, fillcolor="#f3c6a6"] ;
795 -> 801 ;
802 [label=<NAME_FAMILY_STATUS &le; 2.5<br/>gini = 0.496<br/>samples = 63<br/>value = [70, 84]>, fillcolor="#deeffb"] ;
801 -> 802 ;
803 [label=<AMT_CREDIT &le; 1992456.0<br/>gini = 0.495<br/>samples = 58<br/>value = [68, 56]>, fillcolor="#fae9dc"] ;
802 -> 803 ;
804 [label=<gini = 0.47<br/>samples = 55<br/>value = [66, 40]>, fillcolor="#f5cdb1"] ;
803 -> 804 ;
805 [label=<gini = 0.198<br/>samples = 3<br/>value = [2, 16]>, fillcolor="#52a9e8"] ;
803 -> 805 ;
806 [label=<REGION_RATING_CLIENT_W_CITY &le; 1.5<br/>gini = 0.124<br/>samples = 5<br/>value = [2, 28]>, fillcolor="#47a4e7"] ;
802 -> 806 ;
807 [label=<gini = 0.0<br/>samples = 1<br/>value = [1, 0]>, fillcolor="#e58139"] ;
806 -> 807 ;
808 [label=<gini = 0.067<br/>samples = 4<br/>value = [1, 28]>, fillcolor="#40a0e6"] ;
806 -> 808 ;
809 [label=<DAYS_BIRTH &le; 0.649<br/>gini = 0.425<br/>samples = 303<br/>value = [425, 188]>, fillcolor="#f1b991"] ;
801 -> 809 ;
810 [label=<AMT_INCOME_TOTAL EXT_SOURCE_2 &le; 0.01<br/>gini = 0.345<br/>samples = 185<br/>value = [281, 80]>, fillcolor="#eca571"] ;
809 -> 810 ;
811 [label=<gini = 0.211<br/>samples = 111<br/>value = [176, 24]>, fillcolor="#e99254"] ;
810 -> 811 ;
812 [label=<gini = 0.454<br/>samples = 74<br/>value = [105, 56]>, fillcolor="#f3c4a3"] ;
810 -> 812 ;
813 [label=<AMT_ANNUITY &le; 0.186<br/>gini = 0.49<br/>samples = 118<br/>value = [144, 108]>, fillcolor="#f8e0ce"] ;
809 -> 813 ;
814 [label=<gini = 0.484<br/>samples = 47<br/>value = [56, 80]>, fillcolor="#c4e2f7"] ;
813 -> 814 ;
815 [label=<gini = 0.366<br/>samples = 71<br/>value = [88, 28]>, fillcolor="#eda978"] ;
813 -> 815 ;
816 [label=<EXT_SOURCE_3 &le; 0.59<br/>gini = 0.198<br/>samples = 2<br/>value = [1, 8]>, fillcolor="#52a9e8"] ;
794 -> 816 ;
817 [label=<gini = 0.0<br/>samples = 1<br/>value = [0, 8]>, fillcolor="#399de5"] ;
816 -> 817 ;
818 [label=<gini = 0.0<br/>samples = 1<br/>value = [1, 0]>, fillcolor="#e58139"] ;
816 -> 818 ;
819 [label=<EXT_SOURCE_2 &le; 0.825<br/>gini = 0.482<br/>samples = 7159<br/>value = [9580, 6528]>, fillcolor="#f7d7c0"] ;
751 -> 819 ;
820 [label=<AMT_INCOME_TOTAL AMT_GOODS_PRICE &le; 0.005<br/>gini = 0.492<br/>samples = 4822<br/>value = [6296.0, 4892.0]>, fillcolor="#f9e3d3"] ;
819 -> 820 ;
821 [label=<DAYS_EMPLOYED &le; 0.892<br/>gini = 0.494<br/>samples = 4537<br/>value = [5876, 4740]>, fillcolor="#fae7d9"] ;
820 -> 821 ;
822 [label=<EXT_SOURCE_2 &le; 0.813<br/>gini = 0.465<br/>samples = 1150<br/>value = [1562, 912]>, fillcolor="#f4cbad"] ;
821 -> 822 ;
823 [label=<AMT_CREDIT EXT_SOURCE_2 &le; 0.092<br/>gini = 0.454<br/>samples = 1012<br/>value = [1387.0, 744.0]>, fillcolor="#f3c5a3"] ;
822 -> 823 ;
824 [label=<AMT_CREDIT AMT_GOODS_PRICE &le; 0.005<br/>gini = 0.392<br/>samples = 413<br/>value = [591.0, 216.0]>, fillcolor="#efaf81"] ;
823 -> 824 ;
825 [label=<gini = 0.447<br/>samples = 317<br/>value = [418.0, 212.0]>, fillcolor="#f2c19d"] ;
824 -> 825 ;
826 [label=<gini = 0.044<br/>samples = 96<br/>value = [173, 4]>, fillcolor="#e6843e"] ;
824 -> 826 ;
827 [label=<AMT_ANNUITY &le; 0.096<br/>gini = 0.48<br/>samples = 599<br/>value = [796, 528]>, fillcolor="#f6d5bc"] ;
823 -> 827 ;
828 [label=<gini = 0.376<br/>samples = 195<br/>value = [275, 92]>, fillcolor="#eeab7b"] ;
827 -> 828 ;
829 [label=<gini = 0.496<br/>samples = 404<br/>value = [521, 436]>, fillcolor="#fbeadf"] ;
827 -> 829 ;
830 [label=<DAYS_LAST_PHONE_CHANGE &le; 0.975<br/>gini = 0.5<br/>samples = 138<br/>value = [175, 168]>, fillcolor="#fefaf7"] ;
822 -> 830 ;
831 [label=<DAYS_REGISTRATION &le; 0.527<br/>gini = 0.497<br/>samples = 118<br/>value = [144, 168]>, fillcolor="#e3f1fb"] ;
830 -> 831 ;
832 [label=<gini = 0.0<br/>samples = 2<br/>value = [0, 20]>, fillcolor="#399de5"] ;
831 -> 832 ;
833 [label=<gini = 0.5<br/>samples = 116<br/>value = [144, 148]>, fillcolor="#fafcfe"] ;
831 -> 833 ;
834 [label=<gini = 0.0<br/>samples = 20<br/>value = [31, 0]>, fillcolor="#e58139"] ;
830 -> 834 ;
835 [label=<EXT_SOURCE_3 &le; 0.468<br/>gini = 0.498<br/>samples = 3387<br/>value = [4314, 3828]>, fillcolor="#fcf1e9"] ;
821 -> 835 ;
836 [label=<OBS_30_CNT_SOCIAL_CIRCLE &le; 9.5<br/>gini = 0.469<br/>samples = 982<br/>value = [1073, 1788]>, fillcolor="#b0d8f5"] ;
835 -> 836 ;
837 [label=<DAYS_BIRTH &le; 0.273<br/>gini = 0.465<br/>samples = 962<br/>value = [1039, 1780]>, fillcolor="#add6f4"] ;
836 -> 837 ;
838 [label=<gini = 0.434<br/>samples = 39<br/>value = [60.0, 28.0]>, fillcolor="#f1bc95"] ;
837 -> 838 ;
839 [label=<gini = 0.46<br/>samples = 923<br/>value = [979.0, 1752.0]>, fillcolor="#a8d4f4"] ;
837 -> 839 ;
840 [label=<AMT_CREDIT^2 &le; 0.004<br/>gini = 0.308<br/>samples = 20<br/>value = [34, 8]>, fillcolor="#eb9f68"] ;
836 -> 840 ;
841 [label=<gini = 0.444<br/>samples = 4<br/>value = [4, 8]>, fillcolor="#9ccef2"] ;
